digraph Tree {
node [shape=box, style="filled, rounded", color="black", fontname="helvetica"] ;
edge [fontname="helvetica"] ;
0 [label=<alm &le; -0.745<br/>gini = 0.779<br/>samples = 1187<br/>value = [365, 5, 28, 31, 42, 137, 194, 342, 17, 26]<br/>class = CYT>, fillcolor="#fefcfa"] ;
1 [label=<mcg &le; 1.278<br/>gini = 0.677<br/>samples = 237<br/>value = [5, 1, 4, 24, 29, 126, 19, 20, 1, 8]<br/>class = ME3>, fillcolor="#a3d1f3"] ;
0 -> 1 [labeldistance=2.5, labelangle=45, headlabel="True"] ;
2 [label=<mit &le; 1.213<br/>gini = 0.477<br/>samples = 178<br/>value = [5, 0, 0, 0, 6, 126, 14, 20, 1, 6]<br/>class = ME3>, fillcolor="#7abdee"] ;
1 -> 2 ;
3 [label=<nuc &le; 2.686<br/>gini = 0.406<br/>samples = 163<br/>value = [4, 0, 0, 0, 5, 124, 7, 17, 1, 5]<br/>class = ME3>, fillcolor="#6eb7ec"] ;
2 -> 3 ;
4 [label=<mcg &le; 0.4<br/>gini = 0.387<br/>samples = 160<br/>value = [4, 0, 0, 0, 5, 124, 7, 14, 1, 5]<br/>class = ME3>, fillcolor="#6ab5eb"] ;
3 -> 4 ;
5 [label=<alm &le; -1.211<br/>gini = 0.298<br/>samples = 137<br/>value = [1, 0, 0, 0, 3, 114, 3, 12, 1, 3]<br/>class = ME3>, fillcolor="#5dafea"] ;
4 -> 5 ;
6 [label=<gvh &le; 1.106<br/>gini = 0.214<br/>samples = 104<br/>value = [0, 0, 0, 0, 2, 92, 3, 4, 0, 3]<br/>class = ME3>, fillcolor="#51a9e8"] ;
5 -> 6 ;
7 [label=<gvh &le; -2.389<br/>gini = 0.145<br/>samples = 92<br/>value = [0, 0, 0, 0, 1, 85, 1, 2, 0, 3]<br/>class = ME3>, fillcolor="#49a5e7"] ;
6 -> 7 ;
8 [label=<vac &le; -0.517<br/>gini = 0.5<br/>samples = 2<br/>value = [0, 0, 0, 0, 0, 1, 0, 1, 0, 0]<br/>class = ME3>, fillcolor="#ffffff"] ;
7 -> 8 ;
9 [label=<gini = 0.0<br/>samples = 1<br/>value = [0, 0, 0, 0, 0, 0, 0, 1, 0, 0]<br/>class = NUC>, fillcolor="#a339e5"] ;
8 -> 9 ;
10 [label=<gini = 0.0<br/>samples = 1<br/>value = [0, 0, 0, 0, 0, 1, 0, 0, 0, 0]<br/>class = ME3>, fillcolor="#399de5"] ;
8 -> 10 ;
11 [label=<vac &le; -1.722<br/>gini = 0.127<br/>samples = 90<br/>value = [0, 0, 0, 0, 1, 84, 1, 1, 0, 3]<br/>class = ME3>, fillcolor="#47a4e7"] ;
7 -> 11 ;
12 [label=<gvh &le; -0.235<br/>gini = 0.5<br/>samples = 2<br/>value = [0, 0, 0, 0, 0, 1, 0, 0, 0, 1]<br/>class = ME3>, fillcolor="#ffffff"] ;
11 -> 12 ;
13 [label=<gini = 0.0<br/>samples = 1<br/>value = [0, 0, 0, 0, 0, 0, 0, 0, 0, 1]<br/>class = VAC>, fillcolor="#e53958"] ;
12 -> 13 ;
14 [label=<gini = 0.0<br/>samples = 1<br/>value = [0, 0, 0, 0, 0, 1, 0, 0, 0, 0]<br/>class = ME3>, fillcolor="#399de5"] ;
12 -> 14 ;
15 [label=<gvh &le; -0.845<br/>gini = 0.11<br/>samples = 88<br/>value = [0, 0, 0, 0, 1, 83, 1, 1, 0, 2]<br/>class = ME3>, fillcolor="#45a3e7"] ;
11 -> 15 ;
16 [label=<gvh &le; -1.007<br/>gini = 0.277<br/>samples = 19<br/>value = [0, 0, 0, 0, 1, 16, 0, 0, 0, 2]<br/>class = ME3>, fillcolor="#5caeea"] ;
15 -> 16 ;
17 [label=<vac &le; 0.258<br/>gini = 0.111<br/>samples = 17<br/>value = [0, 0, 0, 0, 0, 16, 0, 0, 0, 1]<br/>class = ME3>, fillcolor="#45a3e7"] ;
16 -> 17 ;
18 [label=<nuc &le; -0.301<br/>gini = 0.32<br/>samples = 5<br/>value = [0, 0, 0, 0, 0, 4, 0, 0, 0, 1]<br/>class = ME3>, fillcolor="#6ab6ec"] ;
17 -> 18 ;
19 [label=<gini = 0.0<br/>samples = 3<br/>value = [0, 0, 0, 0, 0, 3, 0, 0, 0, 0]<br/>class = ME3>, fillcolor="#399de5"] ;
18 -> 19 ;
20 [label=<mcg &le; -1.027<br/>gini = 0.5<br/>samples = 2<br/>value = [0, 0, 0, 0, 0, 1, 0, 0, 0, 1]<br/>class = ME3>, fillcolor="#ffffff"] ;
18 -> 20 ;
21 [label=<gini = 0.0<br/>samples = 1<br/>value = [0, 0, 0, 0, 0, 1, 0, 0, 0, 0]<br/>class = ME3>, fillcolor="#399de5"] ;
20 -> 21 ;
22 [label=<gini = 0.0<br/>samples = 1<br/>value = [0, 0, 0, 0, 0, 0, 0, 0, 0, 1]<br/>class = VAC>, fillcolor="#e53958"] ;
20 -> 22 ;
23 [label=<gini = 0.0<br/>samples = 12<br/>value = [0, 0, 0, 0, 0, 12, 0, 0, 0, 0]<br/>class = ME3>, fillcolor="#399de5"] ;
17 -> 23 ;
24 [label=<gvh &le; -0.926<br/>gini = 0.5<br/>samples = 2<br/>value = [0, 0, 0, 0, 1, 0, 0, 0, 0, 1]<br/>class = ME2>, fillcolor="#ffffff"] ;
16 -> 24 ;
25 [label=<gini = 0.0<br/>samples = 1<br/>value = [0, 0, 0, 0, 1, 0, 0, 0, 0, 0]<br/>class = ME2>, fillcolor="#39e5c5"] ;
24 -> 25 ;
26 [label=<gini = 0.0<br/>samples = 1<br/>value = [0, 0, 0, 0, 0, 0, 0, 0, 0, 1]<br/>class = VAC>, fillcolor="#e53958"] ;
24 -> 26 ;
27 [label=<mit &le; 0.331<br/>gini = 0.057<br/>samples = 69<br/>value = [0, 0, 0, 0, 0, 67, 1, 1, 0, 0]<br/>class = ME3>, fillcolor="#3fa0e6"] ;
15 -> 27 ;
28 [label=<gini = 0.0<br/>samples = 58<br/>value = [0, 0, 0, 0, 0, 58, 0, 0, 0, 0]<br/>class = ME3>, fillcolor="#399de5"] ;
27 -> 28 ;
29 [label=<vac &le; -0.259<br/>gini = 0.314<br/>samples = 11<br/>value = [0, 0, 0, 0, 0, 9, 1, 1, 0, 0]<br/>class = ME3>, fillcolor="#61b1ea"] ;
27 -> 29 ;
30 [label=<gini = 0.0<br/>samples = 1<br/>value = [0, 0, 0, 0, 0, 0, 1, 0, 0, 0]<br/>class = MIT>, fillcolor="#3c39e5"] ;
29 -> 30 ;
31 [label=<mit &le; 0.404<br/>gini = 0.18<br/>samples = 10<br/>value = [0, 0, 0, 0, 0, 9, 0, 1, 0, 0]<br/>class = ME3>, fillcolor="#4fa8e8"] ;
29 -> 31 ;
32 [label=<nuc &le; 0.125<br/>gini = 0.5<br/>samples = 2<br/>value = [0, 0, 0, 0, 0, 1, 0, 1, 0, 0]<br/>class = ME3>, fillcolor="#ffffff"] ;
31 -> 32 ;
33 [label=<gini = 0.0<br/>samples = 1<br/>value = [0, 0, 0, 0, 0, 1, 0, 0, 0, 0]<br/>class = ME3>, fillcolor="#399de5"] ;
32 -> 33 ;
34 [label=<gini = 0.0<br/>samples = 1<br/>value = [0, 0, 0, 0, 0, 0, 0, 1, 0, 0]<br/>class = NUC>, fillcolor="#a339e5"] ;
32 -> 34 ;
35 [label=<gini = 0.0<br/>samples = 8<br/>value = [0, 0, 0, 0, 0, 8, 0, 0, 0, 0]<br/>class = ME3>, fillcolor="#399de5"] ;
31 -> 35 ;
36 [label=<gvh &le; 1.187<br/>gini = 0.597<br/>samples = 12<br/>value = [0, 0, 0, 0, 1, 7, 2, 2, 0, 0]<br/>class = ME3>, fillcolor="#9ccef2"] ;
6 -> 36 ;
37 [label=<gini = 0.0<br/>samples = 1<br/>value = [0, 0, 0, 0, 0, 0, 1, 0, 0, 0]<br/>class = MIT>, fillcolor="#3c39e5"] ;
36 -> 37 ;
38 [label=<mit &le; -0.074<br/>gini = 0.545<br/>samples = 11<br/>value = [0, 0, 0, 0, 1, 7, 1, 2, 0, 0]<br/>class = ME3>, fillcolor="#91c9f1"] ;
36 -> 38 ;
39 [label=<nuc &le; -0.349<br/>gini = 0.611<br/>samples = 6<br/>value = [0, 0, 0, 0, 1, 3, 0, 2, 0, 0]<br/>class = ME3>, fillcolor="#cee6f8"] ;
38 -> 39 ;
40 [label=<mcg &le; -0.771<br/>gini = 0.375<br/>samples = 4<br/>value = [0, 0, 0, 0, 1, 3, 0, 0, 0, 0]<br/>class = ME3>, fillcolor="#7bbeee"] ;
39 -> 40 ;
41 [label=<gini = 0.0<br/>samples = 1<br/>value = [0, 0, 0, 0, 1, 0, 0, 0, 0, 0]<br/>class = ME2>, fillcolor="#39e5c5"] ;
40 -> 41 ;
42 [label=<gini = 0.0<br/>samples = 3<br/>value = [0, 0, 0, 0, 0, 3, 0, 0, 0, 0]<br/>class = ME3>, fillcolor="#399de5"] ;
40 -> 42 ;
43 [label=<gini = 0.0<br/>samples = 2<br/>value = [0, 0, 0, 0, 0, 0, 0, 2, 0, 0]<br/>class = NUC>, fillcolor="#a339e5"] ;
39 -> 43 ;
44 [label=<alm &le; -1.501<br/>gini = 0.32<br/>samples = 5<br/>value = [0, 0, 0, 0, 0, 4, 1, 0, 0, 0]<br/>class = ME3>, fillcolor="#6ab6ec"] ;
38 -> 44 ;
45 [label=<gini = 0.0<br/>samples = 4<br/>value = [0, 0, 0, 0, 0, 4, 0, 0, 0, 0]<br/>class = ME3>, fillcolor="#399de5"] ;
44 -> 45 ;
46 [label=<gini = 0.0<br/>samples = 1<br/>value = [0, 0, 0, 0, 0, 0, 1, 0, 0, 0]<br/>class = MIT>, fillcolor="#3c39e5"] ;
44 -> 46 ;
47 [label=<vac &le; 1.118<br/>gini = 0.494<br/>samples = 33<br/>value = [1, 0, 0, 0, 1, 22, 0, 8, 1, 0]<br/>class = ME3>, fillcolor="#90c8f0"] ;
5 -> 47 ;
48 [label=<pox &le; 5.645<br/>gini = 0.42<br/>samples = 30<br/>value = [0, 0, 0, 0, 1, 22, 0, 6, 1, 0]<br/>class = ME3>, fillcolor="#7bbeee"] ;
47 -> 48 ;
49 [label=<mit &le; -0.331<br/>gini = 0.38<br/>samples = 29<br/>value = [0, 0, 0, 0, 1, 22, 0, 6, 0, 0]<br/>class = ME3>, fillcolor="#75bbed"] ;
48 -> 49 ;
50 [label=<mcg &le; 0.253<br/>gini = 0.265<br/>samples = 20<br/>value = [0, 0, 0, 0, 1, 17, 0, 2, 0, 0]<br/>class = ME3>, fillcolor="#5aade9"] ;
49 -> 50 ;
51 [label=<gvh &le; 0.212<br/>gini = 0.188<br/>samples = 19<br/>value = [0, 0, 0, 0, 0, 17, 0, 2, 0, 0]<br/>class = ME3>, fillcolor="#50a9e8"] ;
50 -> 51 ;
52 [label=<gini = 0.0<br/>samples = 12<br/>value = [0, 0, 0, 0, 0, 12, 0, 0, 0, 0]<br/>class = ME3>, fillcolor="#399de5"] ;
51 -> 52 ;
53 [label=<gvh &le; 0.374<br/>gini = 0.408<br/>samples = 7<br/>value = [0, 0, 0, 0, 0, 5, 0, 2, 0, 0]<br/>class = ME3>, fillcolor="#88c4ef"] ;
51 -> 53 ;
54 [label=<gini = 0.0<br/>samples = 2<br/>value = [0, 0, 0, 0, 0, 0, 0, 2, 0, 0]<br/>class = NUC>, fillcolor="#a339e5"] ;
53 -> 54 ;
55 [label=<gini = 0.0<br/>samples = 5<br/>value = [0, 0, 0, 0, 0, 5, 0, 0, 0, 0]<br/>class = ME3>, fillcolor="#399de5"] ;
53 -> 55 ;
56 [label=<gini = 0.0<br/>samples = 1<br/>value = [0, 0, 0, 0, 1, 0, 0, 0, 0, 0]<br/>class = ME2>, fillcolor="#39e5c5"] ;
50 -> 56 ;
57 [label=<mcg &le; -0.186<br/>gini = 0.494<br/>samples = 9<br/>value = [0, 0, 0, 0, 0, 5, 0, 4, 0, 0]<br/>class = ME3>, fillcolor="#d7ebfa"] ;
49 -> 57 ;
58 [label=<gvh &le; -1.535<br/>gini = 0.444<br/>samples = 6<br/>value = [0, 0, 0, 0, 0, 2, 0, 4, 0, 0]<br/>class = NUC>, fillcolor="#d19cf2"] ;
57 -> 58 ;
59 [label=<gini = 0.0<br/>samples = 1<br/>value = [0, 0, 0, 0, 0, 1, 0, 0, 0, 0]<br/>class = ME3>, fillcolor="#399de5"] ;
58 -> 59 ;
60 [label=<gvh &le; 0.618<br/>gini = 0.32<br/>samples = 5<br/>value = [0, 0, 0, 0, 0, 1, 0, 4, 0, 0]<br/>class = NUC>, fillcolor="#ba6aec"] ;
58 -> 60 ;
61 [label=<gini = 0.0<br/>samples = 4<br/>value = [0, 0, 0, 0, 0, 0, 0, 4, 0, 0]<br/>class = NUC>, fillcolor="#a339e5"] ;
60 -> 61 ;
62 [label=<gini = 0.0<br/>samples = 1<br/>value = [0, 0, 0, 0, 0, 1, 0, 0, 0, 0]<br/>class = ME3>, fillcolor="#399de5"] ;
60 -> 62 ;
63 [label=<gini = 0.0<br/>samples = 3<br/>value = [0, 0, 0, 0, 0, 3, 0, 0, 0, 0]<br/>class = ME3>, fillcolor="#399de5"] ;
57 -> 63 ;
64 [label=<gini = 0.0<br/>samples = 1<br/>value = [0, 0, 0, 0, 0, 0, 0, 0, 1, 0]<br/>class = POX>, fillcolor="#e539c0"] ;
48 -> 64 ;
65 [label=<gvh &le; -0.438<br/>gini = 0.444<br/>samples = 3<br/>value = [1, 0, 0, 0, 0, 0, 0, 2, 0, 0]<br/>class = NUC>, fillcolor="#d19cf2"] ;
47 -> 65 ;
66 [label=<gini = 0.0<br/>samples = 1<br/>value = [1, 0, 0, 0, 0, 0, 0, 0, 0, 0]<br/>class = CYT>, fillcolor="#e58139"] ;
65 -> 66 ;
67 [label=<gini = 0.0<br/>samples = 2<br/>value = [0, 0, 0, 0, 0, 0, 0, 2, 0, 0]<br/>class = NUC>, fillcolor="#a339e5"] ;
65 -> 67 ;
68 [label=<mcg &le; 1.058<br/>gini = 0.741<br/>samples = 23<br/>value = [3, 0, 0, 0, 2, 10, 4, 2, 0, 2]<br/>class = ME3>, fillcolor="#c0e0f7"] ;
4 -> 68 ;
69 [label=<alm &le; -1.211<br/>gini = 0.796<br/>samples = 17<br/>value = [3, 0, 0, 0, 1, 5, 4, 2, 0, 2]<br/>class = ME3>, fillcolor="#f0f7fd"] ;
68 -> 69 ;
70 [label=<alm &le; -1.909<br/>gini = 0.719<br/>samples = 8<br/>value = [0, 0, 0, 0, 1, 2, 3, 0, 0, 2]<br/>class = MIT>, fillcolor="#dedefb"] ;
69 -> 70 ;
71 [label=<mit &le; -0.552<br/>gini = 0.722<br/>samples = 6<br/>value = [0, 0, 0, 0, 1, 2, 1, 0, 0, 2]<br/>class = ME3>, fillcolor="#ffffff"] ;
70 -> 71 ;
72 [label=<gini = 0.0<br/>samples = 2<br/>value = [0, 0, 0, 0, 0, 0, 0, 0, 0, 2]<br/>class = VAC>, fillcolor="#e53958"] ;
71 -> 72 ;
73 [label=<gvh &le; 0.09<br/>gini = 0.625<br/>samples = 4<br/>value = [0, 0, 0, 0, 1, 2, 1, 0, 0, 0]<br/>class = ME3>, fillcolor="#bddef6"] ;
71 -> 73 ;
74 [label=<gini = 0.0<br/>samples = 1<br/>value = [0, 0, 0, 0, 1, 0, 0, 0, 0, 0]<br/>class = ME2>, fillcolor="#39e5c5"] ;
73 -> 74 ;
75 [label=<mcg &le; 0.875<br/>gini = 0.444<br/>samples = 3<br/>value = [0, 0, 0, 0, 0, 2, 1, 0, 0, 0]<br/>class = ME3>, fillcolor="#9ccef2"] ;
73 -> 75 ;
76 [label=<gini = 0.0<br/>samples = 2<br/>value = [0, 0, 0, 0, 0, 2, 0, 0, 0, 0]<br/>class = ME3>, fillcolor="#399de5"] ;
75 -> 76 ;
77 [label=<gini = 0.0<br/>samples = 1<br/>value = [0, 0, 0, 0, 0, 0, 1, 0, 0, 0]<br/>class = MIT>, fillcolor="#3c39e5"] ;
75 -> 77 ;
78 [label=<gini = 0.0<br/>samples = 2<br/>value = [0, 0, 0, 0, 0, 0, 2, 0, 0, 0]<br/>class = MIT>, fillcolor="#3c39e5"] ;
70 -> 78 ;
79 [label=<mit &le; -0.148<br/>gini = 0.716<br/>samples = 9<br/>value = [3, 0, 0, 0, 0, 3, 1, 2, 0, 0]<br/>class = CYT>, fillcolor="#ffffff"] ;
69 -> 79 ;
80 [label=<nuc &le; -0.396<br/>gini = 0.48<br/>samples = 5<br/>value = [2, 0, 0, 0, 0, 3, 0, 0, 0, 0]<br/>class = ME3>, fillcolor="#bddef6"] ;
79 -> 80 ;
81 [label=<gvh &le; -0.479<br/>gini = 0.375<br/>samples = 4<br/>value = [1, 0, 0, 0, 0, 3, 0, 0, 0, 0]<br/>class = ME3>, fillcolor="#7bbeee"] ;
80 -> 81 ;
82 [label=<gini = 0.0<br/>samples = 1<br/>value = [1, 0, 0, 0, 0, 0, 0, 0, 0, 0]<br/>class = CYT>, fillcolor="#e58139"] ;
81 -> 82 ;
83 [label=<gini = 0.0<br/>samples = 3<br/>value = [0, 0, 0, 0, 0, 3, 0, 0, 0, 0]<br/>class = ME3>, fillcolor="#399de5"] ;
81 -> 83 ;
84 [label=<gini = 0.0<br/>samples = 1<br/>value = [1, 0, 0, 0, 0, 0, 0, 0, 0, 0]<br/>class = CYT>, fillcolor="#e58139"] ;
80 -> 84 ;
85 [label=<vac &le; 0.344<br/>gini = 0.625<br/>samples = 4<br/>value = [1, 0, 0, 0, 0, 0, 1, 2, 0, 0]<br/>class = NUC>, fillcolor="#e0bdf6"] ;
79 -> 85 ;
86 [label=<alm &le; -0.861<br/>gini = 0.5<br/>samples = 2<br/>value = [1, 0, 0, 0, 0, 0, 1, 0, 0, 0]<br/>class = CYT>, fillcolor="#ffffff"] ;
85 -> 86 ;
87 [label=<gini = 0.0<br/>samples = 1<br/>value = [1, 0, 0, 0, 0, 0, 0, 0, 0, 0]<br/>class = CYT>, fillcolor="#e58139"] ;
86 -> 87 ;
88 [label=<gini = 0.0<br/>samples = 1<br/>value = [0, 0, 0, 0, 0, 0, 1, 0, 0, 0]<br/>class = MIT>, fillcolor="#3c39e5"] ;
86 -> 88 ;
89 [label=<gini = 0.0<br/>samples = 2<br/>value = [0, 0, 0, 0, 0, 0, 0, 2, 0, 0]<br/>class = NUC>, fillcolor="#a339e5"] ;
85 -> 89 ;
90 [label=<gvh &le; 0.74<br/>gini = 0.278<br/>samples = 6<br/>value = [0, 0, 0, 0, 1, 5, 0, 0, 0, 0]<br/>class = ME3>, fillcolor="#61b1ea"] ;
68 -> 90 ;
91 [label=<vac &le; 1.549<br/>gini = 0.5<br/>samples = 2<br/>value = [0, 0, 0, 0, 1, 1, 0, 0, 0, 0]<br/>class = ME2>, fillcolor="#ffffff"] ;
90 -> 91 ;
92 [label=<gini = 0.0<br/>samples = 1<br/>value = [0, 0, 0, 0, 1, 0, 0, 0, 0, 0]<br/>class = ME2>, fillcolor="#39e5c5"] ;
91 -> 92 ;
93 [label=<gini = 0.0<br/>samples = 1<br/>value = [0, 0, 0, 0, 0, 1, 0, 0, 0, 0]<br/>class = ME3>, fillcolor="#399de5"] ;
91 -> 93 ;
94 [label=<gini = 0.0<br/>samples = 4<br/>value = [0, 0, 0, 0, 0, 4, 0, 0, 0, 0]<br/>class = ME3>, fillcolor="#399de5"] ;
90 -> 94 ;
95 [label=<gini = 0.0<br/>samples = 3<br/>value = [0, 0, 0, 0, 0, 0, 0, 3, 0, 0]<br/>class = NUC>, fillcolor="#a339e5"] ;
3 -> 95 ;
96 [label=<mit &le; 2.133<br/>gini = 0.711<br/>samples = 15<br/>value = [1, 0, 0, 0, 1, 2, 7, 3, 0, 1]<br/>class = MIT>, fillcolor="#bebdf6"] ;
2 -> 96 ;
97 [label=<gvh &le; 0.171<br/>gini = 0.8<br/>samples = 10<br/>value = [1, 0, 0, 0, 1, 2, 2, 3, 0, 1]<br/>class = NUC>, fillcolor="#f4e6fc"] ;
96 -> 97 ;
98 [label=<mit &le; 1.287<br/>gini = 0.611<br/>samples = 6<br/>value = [0, 0, 0, 0, 0, 2, 0, 3, 0, 1]<br/>class = NUC>, fillcolor="#e8cef8"] ;
97 -> 98 ;
99 [label=<gini = 0.0<br/>samples = 1<br/>value = [0, 0, 0, 0, 0, 0, 0, 0, 0, 1]<br/>class = VAC>, fillcolor="#e53958"] ;
98 -> 99 ;
100 [label=<mit &le; 1.581<br/>gini = 0.48<br/>samples = 5<br/>value = [0, 0, 0, 0, 0, 2, 0, 3, 0, 0]<br/>class = NUC>, fillcolor="#e0bdf6"] ;
98 -> 100 ;
101 [label=<mcg &le; -0.003<br/>gini = 0.444<br/>samples = 3<br/>value = [0, 0, 0, 0, 0, 2, 0, 1, 0, 0]<br/>class = ME3>, fillcolor="#9ccef2"] ;
100 -> 101 ;
102 [label=<gini = 0.0<br/>samples = 1<br/>value = [0, 0, 0, 0, 0, 0, 0, 1, 0, 0]<br/>class = NUC>, fillcolor="#a339e5"] ;
101 -> 102 ;
103 [label=<gini = 0.0<br/>samples = 2<br/>value = [0, 0, 0, 0, 0, 2, 0, 0, 0, 0]<br/>class = ME3>, fillcolor="#399de5"] ;
101 -> 103 ;
104 [label=<gini = 0.0<br/>samples = 2<br/>value = [0, 0, 0, 0, 0, 0, 0, 2, 0, 0]<br/>class = NUC>, fillcolor="#a339e5"] ;
100 -> 104 ;
105 [label=<alm &le; -1.211<br/>gini = 0.625<br/>samples = 4<br/>value = [1, 0, 0, 0, 1, 0, 2, 0, 0, 0]<br/>class = MIT>, fillcolor="#bebdf6"] ;
97 -> 105 ;
106 [label=<nuc &le; -0.112<br/>gini = 0.5<br/>samples = 2<br/>value = [1, 0, 0, 0, 1, 0, 0, 0, 0, 0]<br/>class = CYT>, fillcolor="#ffffff"] ;
105 -> 106 ;
107 [label=<gini = 0.0<br/>samples = 1<br/>value = [0, 0, 0, 0, 1, 0, 0, 0, 0, 0]<br/>class = ME2>, fillcolor="#39e5c5"] ;
106 -> 107 ;
108 [label=<gini = 0.0<br/>samples = 1<br/>value = [1, 0, 0, 0, 0, 0, 0, 0, 0, 0]<br/>class = CYT>, fillcolor="#e58139"] ;
106 -> 108 ;
109 [label=<gini = 0.0<br/>samples = 2<br/>value = [0, 0, 0, 0, 0, 0, 2, 0, 0, 0]<br/>class = MIT>, fillcolor="#3c39e5"] ;
105 -> 109 ;
110 [label=<gini = 0.0<br/>samples = 5<br/>value = [0, 0, 0, 0, 0, 0, 5, 0, 0, 0]<br/>class = MIT>, fillcolor="#3c39e5"] ;
96 -> 110 ;
111 [label=<gvh &le; 1.025<br/>gini = 0.669<br/>samples = 59<br/>value = [0, 1, 4, 24, 23, 0, 5, 0, 0, 2]<br/>class = ME1>, fillcolor="#fafefb"] ;
1 -> 111 ;
112 [label=<erl &le; 4.699<br/>gini = 0.38<br/>samples = 22<br/>value = [0, 1, 0, 0, 17, 0, 3, 0, 0, 1]<br/>class = ME2>, fillcolor="#6decd4"] ;
111 -> 112 ;
113 [label=<gvh &le; 0.7<br/>gini = 0.322<br/>samples = 21<br/>value = [0, 0, 0, 0, 17, 0, 3, 0, 0, 1]<br/>class = ME2>, fillcolor="#65ebd2"] ;
112 -> 113 ;
114 [label=<gini = 0.0<br/>samples = 12<br/>value = [0, 0, 0, 0, 12, 0, 0, 0, 0, 0]<br/>class = ME2>, fillcolor="#39e5c5"] ;
113 -> 114 ;
115 [label=<mcg &le; 1.973<br/>gini = 0.568<br/>samples = 9<br/>value = [0, 0, 0, 0, 5, 0, 3, 0, 0, 1]<br/>class = ME2>, fillcolor="#bdf6ec"] ;
113 -> 115 ;
116 [label=<mit &le; 0.147<br/>gini = 0.56<br/>samples = 5<br/>value = [0, 0, 0, 0, 1, 0, 3, 0, 0, 1]<br/>class = MIT>, fillcolor="#9e9cf2"] ;
115 -> 116 ;
117 [label=<mit &le; -0.368<br/>gini = 0.5<br/>samples = 2<br/>value = [0, 0, 0, 0, 1, 0, 0, 0, 0, 1]<br/>class = ME2>, fillcolor="#ffffff"] ;
116 -> 117 ;
118 [label=<gini = 0.0<br/>samples = 1<br/>value = [0, 0, 0, 0, 0, 0, 0, 0, 0, 1]<br/>class = VAC>, fillcolor="#e53958"] ;
117 -> 118 ;
119 [label=<gini = 0.0<br/>samples = 1<br/>value = [0, 0, 0, 0, 1, 0, 0, 0, 0, 0]<br/>class = ME2>, fillcolor="#39e5c5"] ;
117 -> 119 ;
120 [label=<gini = 0.0<br/>samples = 3<br/>value = [0, 0, 0, 0, 0, 0, 3, 0, 0, 0]<br/>class = MIT>, fillcolor="#3c39e5"] ;
116 -> 120 ;
121 [label=<gini = 0.0<br/>samples = 4<br/>value = [0, 0, 0, 0, 4, 0, 0, 0, 0, 0]<br/>class = ME2>, fillcolor="#39e5c5"] ;
115 -> 121 ;
122 [label=<gini = 0.0<br/>samples = 1<br/>value = [0, 1, 0, 0, 0, 0, 0, 0, 0, 0]<br/>class = ERL>, fillcolor="#e2e539"] ;
112 -> 122 ;
123 [label=<mcg &le; 2.594<br/>gini = 0.538<br/>samples = 37<br/>value = [0, 0, 4, 24, 6, 0, 2, 0, 0, 1]<br/>class = ME1>, fillcolor="#8cf0a2"] ;
111 -> 123 ;
124 [label=<vac &le; 1.721<br/>gini = 0.418<br/>samples = 28<br/>value = [0, 0, 3, 21, 1, 0, 2, 0, 0, 1]<br/>class = ME1>, fillcolor="#70ec8b"] ;
123 -> 124 ;
125 [label=<gvh &le; 1.187<br/>gini = 0.331<br/>samples = 26<br/>value = [0, 0, 3, 21, 1, 0, 1, 0, 0, 0]<br/>class = ME1>, fillcolor="#64eb81"] ;
124 -> 125 ;
126 [label=<gini = 0.0<br/>samples = 1<br/>value = [0, 0, 1, 0, 0, 0, 0, 0, 0, 0]<br/>class = EXC>, fillcolor="#7be539"] ;
125 -> 126 ;
127 [label=<vac &le; -1.722<br/>gini = 0.285<br/>samples = 25<br/>value = [0, 0, 2, 21, 1, 0, 1, 0, 0, 0]<br/>class = ME1>, fillcolor="#5bea7a"] ;
125 -> 127 ;
128 [label=<gini = 0.0<br/>samples = 1<br/>value = [0, 0, 1, 0, 0, 0, 0, 0, 0, 0]<br/>class = EXC>, fillcolor="#7be539"] ;
127 -> 128 ;
129 [label=<alm &le; -0.92<br/>gini = 0.229<br/>samples = 24<br/>value = [0, 0, 1, 21, 1, 0, 1, 0, 0, 0]<br/>class = ME1>, fillcolor="#53e873"] ;
127 -> 129 ;
130 [label=<gvh &le; 1.431<br/>gini = 0.169<br/>samples = 22<br/>value = [0, 0, 0, 20, 1, 0, 1, 0, 0, 0]<br/>class = ME1>, fillcolor="#4ce76d"] ;
129 -> 130 ;
131 [label=<gvh &le; 1.35<br/>gini = 0.5<br/>samples = 2<br/>value = [0, 0, 0, 1, 1, 0, 0, 0, 0, 0]<br/>class = ME1>, fillcolor="#ffffff"] ;
130 -> 131 ;
132 [label=<gini = 0.0<br/>samples = 1<br/>value = [0, 0, 0, 1, 0, 0, 0, 0, 0, 0]<br/>class = ME1>, fillcolor="#39e55e"] ;
131 -> 132 ;
133 [label=<gini = 0.0<br/>samples = 1<br/>value = [0, 0, 0, 0, 1, 0, 0, 0, 0, 0]<br/>class = ME2>, fillcolor="#39e5c5"] ;
131 -> 133 ;
134 [label=<alm &le; -1.269<br/>gini = 0.095<br/>samples = 20<br/>value = [0, 0, 0, 19, 0, 0, 1, 0, 0, 0]<br/>class = ME1>, fillcolor="#43e666"] ;
130 -> 134 ;
135 [label=<gini = 0.0<br/>samples = 16<br/>value = [0, 0, 0, 16, 0, 0, 0, 0, 0, 0]<br/>class = ME1>, fillcolor="#39e55e"] ;
134 -> 135 ;
136 [label=<mcg &le; 1.826<br/>gini = 0.375<br/>samples = 4<br/>value = [0, 0, 0, 3, 0, 0, 1, 0, 0, 0]<br/>class = ME1>, fillcolor="#7bee94"] ;
134 -> 136 ;
137 [label=<gini = 0.0<br/>samples = 2<br/>value = [0, 0, 0, 2, 0, 0, 0, 0, 0, 0]<br/>class = ME1>, fillcolor="#39e55e"] ;
136 -> 137 ;
138 [label=<vac &le; 0.86<br/>gini = 0.5<br/>samples = 2<br/>value = [0, 0, 0, 1, 0, 0, 1, 0, 0, 0]<br/>class = ME1>, fillcolor="#ffffff"] ;
136 -> 138 ;
139 [label=<gini = 0.0<br/>samples = 1<br/>value = [0, 0, 0, 0, 0, 0, 1, 0, 0, 0]<br/>class = MIT>, fillcolor="#3c39e5"] ;
138 -> 139 ;
140 [label=<gini = 0.0<br/>samples = 1<br/>value = [0, 0, 0, 1, 0, 0, 0, 0, 0, 0]<br/>class = ME1>, fillcolor="#39e55e"] ;
138 -> 140 ;
141 [label=<vac &le; 0.86<br/>gini = 0.5<br/>samples = 2<br/>value = [0, 0, 1, 1, 0, 0, 0, 0, 0, 0]<br/>class = EXC>, fillcolor="#ffffff"] ;
129 -> 141 ;
142 [label=<gini = 0.0<br/>samples = 1<br/>value = [0, 0, 1, 0, 0, 0, 0, 0, 0, 0]<br/>class = EXC>, fillcolor="#7be539"] ;
141 -> 142 ;
143 [label=<gini = 0.0<br/>samples = 1<br/>value = [0, 0, 0, 1, 0, 0, 0, 0, 0, 0]<br/>class = ME1>, fillcolor="#39e55e"] ;
141 -> 143 ;
144 [label=<vac &le; 2.151<br/>gini = 0.5<br/>samples = 2<br/>value = [0, 0, 0, 0, 0, 0, 1, 0, 0, 1]<br/>class = MIT>, fillcolor="#ffffff"] ;
124 -> 144 ;
145 [label=<gini = 0.0<br/>samples = 1<br/>value = [0, 0, 0, 0, 0, 0, 0, 0, 0, 1]<br/>class = VAC>, fillcolor="#e53958"] ;
144 -> 145 ;
146 [label=<gini = 0.0<br/>samples = 1<br/>value = [0, 0, 0, 0, 0, 0, 1, 0, 0, 0]<br/>class = MIT>, fillcolor="#3c39e5"] ;
144 -> 146 ;
147 [label=<gvh &le; 2.122<br/>gini = 0.568<br/>samples = 9<br/>value = [0, 0, 1, 3, 5, 0, 0, 0, 0, 0]<br/>class = ME2>, fillcolor="#bdf6ec"] ;
123 -> 147 ;
148 [label=<gini = 0.0<br/>samples = 4<br/>value = [0, 0, 0, 0, 4, 0, 0, 0, 0, 0]<br/>class = ME2>, fillcolor="#39e5c5"] ;
147 -> 148 ;
149 [label=<mit &le; 0.662<br/>gini = 0.56<br/>samples = 5<br/>value = [0, 0, 1, 3, 1, 0, 0, 0, 0, 0]<br/>class = ME1>, fillcolor="#9cf2ae"] ;
147 -> 149 ;
150 [label=<vac &le; -0.259<br/>gini = 0.5<br/>samples = 2<br/>value = [0, 0, 1, 0, 1, 0, 0, 0, 0, 0]<br/>class = EXC>, fillcolor="#ffffff"] ;
149 -> 150 ;
151 [label=<gini = 0.0<br/>samples = 1<br/>value = [0, 0, 1, 0, 0, 0, 0, 0, 0, 0]<br/>class = EXC>, fillcolor="#7be539"] ;
150 -> 151 ;
152 [label=<gini = 0.0<br/>samples = 1<br/>value = [0, 0, 0, 0, 1, 0, 0, 0, 0, 0]<br/>class = ME2>, fillcolor="#39e5c5"] ;
150 -> 152 ;
153 [label=<gini = 0.0<br/>samples = 3<br/>value = [0, 0, 0, 3, 0, 0, 0, 0, 0, 0]<br/>class = ME1>, fillcolor="#39e55e"] ;
149 -> 153 ;
154 [label=<mit &le; 0.919<br/>gini = 0.706<br/>samples = 950<br/>value = [360, 4, 24, 7, 13, 11, 175, 322, 16, 18]<br/>class = CYT>, fillcolor="#fdf7f3"] ;
0 -> 154 [labeldistance=2.5, labelangle=-45, headlabel="False"] ;
155 [label=<nuc &le; 0.363<br/>gini = 0.667<br/>samples = 778<br/>value = [327, 3, 21, 6, 9, 11, 75, 296, 13, 17]<br/>class = CYT>, fillcolor="#fdf7f2"] ;
154 -> 155 ;
156 [label=<mcg &le; 1.717<br/>gini = 0.675<br/>samples = 601<br/>value = [284, 2, 21, 6, 7, 6, 73, 175, 12, 15]<br/>class = CYT>, fillcolor="#f8dfcc"] ;
155 -> 156 ;
157 [label=<gvh &le; -1.413<br/>gini = 0.64<br/>samples = 565<br/>value = [281, 1, 2, 0, 4, 6, 73, 174, 11, 13]<br/>class = CYT>, fillcolor="#f8ddc9"] ;
156 -> 157 ;
158 [label=<mcg &le; -1.503<br/>gini = 0.558<br/>samples = 44<br/>value = [10, 0, 0, 0, 0, 0, 5, 27, 1, 1]<br/>class = NUC>, fillcolor="#d19cf2"] ;
157 -> 158 ;
159 [label=<alm &le; 1.058<br/>gini = 0.593<br/>samples = 9<br/>value = [5, 0, 0, 0, 0, 0, 2, 2, 0, 0]<br/>class = CYT>, fillcolor="#f4c9aa"] ;
158 -> 159 ;
160 [label=<gvh &le; -2.226<br/>gini = 0.408<br/>samples = 7<br/>value = [5, 0, 0, 0, 0, 0, 0, 2, 0, 0]<br/>class = CYT>, fillcolor="#efb388"] ;
159 -> 160 ;
161 [label=<gini = 0.0<br/>samples = 1<br/>value = [0, 0, 0, 0, 0, 0, 0, 1, 0, 0]<br/>class = NUC>, fillcolor="#a339e5"] ;
160 -> 161 ;
162 [label=<mit &le; -0.92<br/>gini = 0.278<br/>samples = 6<br/>value = [5, 0, 0, 0, 0, 0, 0, 1, 0, 0]<br/>class = CYT>, fillcolor="#ea9a61"] ;
160 -> 162 ;
163 [label=<nuc &le; -0.112<br/>gini = 0.5<br/>samples = 2<br/>value = [1, 0, 0, 0, 0, 0, 0, 1, 0, 0]<br/>class = CYT>, fillcolor="#ffffff"] ;
162 -> 163 ;
164 [label=<gini = 0.0<br/>samples = 1<br/>value = [0, 0, 0, 0, 0, 0, 0, 1, 0, 0]<br/>class = NUC>, fillcolor="#a339e5"] ;
163 -> 164 ;
165 [label=<gini = 0.0<br/>samples = 1<br/>value = [1, 0, 0, 0, 0, 0, 0, 0, 0, 0]<br/>class = CYT>, fillcolor="#e58139"] ;
163 -> 165 ;
166 [label=<gini = 0.0<br/>samples = 4<br/>value = [4, 0, 0, 0, 0, 0, 0, 0, 0, 0]<br/>class = CYT>, fillcolor="#e58139"] ;
162 -> 166 ;
167 [label=<gini = 0.0<br/>samples = 2<br/>value = [0, 0, 0, 0, 0, 0, 2, 0, 0, 0]<br/>class = MIT>, fillcolor="#3c39e5"] ;
159 -> 167 ;
168 [label=<pox &le; 5.645<br/>gini = 0.46<br/>samples = 35<br/>value = [5, 0, 0, 0, 0, 0, 3, 25, 1, 1]<br/>class = NUC>, fillcolor="#c27bee"] ;
158 -> 168 ;
169 [label=<mcg &le; 0.912<br/>gini = 0.429<br/>samples = 34<br/>value = [5, 0, 0, 0, 0, 0, 3, 25, 0, 1]<br/>class = NUC>, fillcolor="#c076ed"] ;
168 -> 169 ;
170 [label=<nuc &le; -0.728<br/>gini = 0.402<br/>samples = 33<br/>value = [4, 0, 0, 0, 0, 0, 3, 25, 0, 1]<br/>class = NUC>, fillcolor="#bc70ec"] ;
169 -> 170 ;
171 [label=<gini = 0.0<br/>samples = 1<br/>value = [1, 0, 0, 0, 0, 0, 0, 0, 0, 0]<br/>class = CYT>, fillcolor="#e58139"] ;
170 -> 171 ;
172 [label=<nuc &le; -0.396<br/>gini = 0.371<br/>samples = 32<br/>value = [3, 0, 0, 0, 0, 0, 3, 25, 0, 1]<br/>class = NUC>, fillcolor="#b969eb"] ;
170 -> 172 ;
173 [label=<vac &le; -1.636<br/>gini = 0.555<br/>samples = 16<br/>value = [2, 0, 0, 0, 0, 0, 3, 10, 0, 1]<br/>class = NUC>, fillcolor="#cd94f1"] ;
172 -> 173 ;
174 [label=<gini = 0.0<br/>samples = 1<br/>value = [0, 0, 0, 0, 0, 0, 1, 0, 0, 0]<br/>class = MIT>, fillcolor="#3c39e5"] ;
173 -> 174 ;
175 [label=<vac &le; -0.086<br/>gini = 0.516<br/>samples = 15<br/>value = [2, 0, 0, 0, 0, 0, 2, 10, 0, 1]<br/>class = NUC>, fillcolor="#c685ef"] ;
173 -> 175 ;
176 [label=<mcg &le; -0.625<br/>gini = 0.219<br/>samples = 8<br/>value = [1, 0, 0, 0, 0, 0, 0, 7, 0, 0]<br/>class = NUC>, fillcolor="#b055e9"] ;
175 -> 176 ;
177 [label=<gini = 0.0<br/>samples = 6<br/>value = [0, 0, 0, 0, 0, 0, 0, 6, 0, 0]<br/>class = NUC>, fillcolor="#a339e5"] ;
176 -> 177 ;
178 [label=<gvh &le; -1.901<br/>gini = 0.5<br/>samples = 2<br/>value = [1, 0, 0, 0, 0, 0, 0, 1, 0, 0]<br/>class = CYT>, fillcolor="#ffffff"] ;
176 -> 178 ;
179 [label=<gini = 0.0<br/>samples = 1<br/>value = [1, 0, 0, 0, 0, 0, 0, 0, 0, 0]<br/>class = CYT>, fillcolor="#e58139"] ;
178 -> 179 ;
180 [label=<gini = 0.0<br/>samples = 1<br/>value = [0, 0, 0, 0, 0, 0, 0, 1, 0, 0]<br/>class = NUC>, fillcolor="#a339e5"] ;
178 -> 180 ;
181 [label=<alm &le; -0.105<br/>gini = 0.694<br/>samples = 7<br/>value = [1, 0, 0, 0, 0, 0, 2, 3, 0, 1]<br/>class = NUC>, fillcolor="#edd7fa"] ;
175 -> 181 ;
182 [label=<gini = 0.0<br/>samples = 1<br/>value = [0, 0, 0, 0, 0, 0, 0, 0, 0, 1]<br/>class = VAC>, fillcolor="#e53958"] ;
181 -> 182 ;
183 [label=<mcg &le; -1.1<br/>gini = 0.611<br/>samples = 6<br/>value = [1, 0, 0, 0, 0, 0, 2, 3, 0, 0]<br/>class = NUC>, fillcolor="#e8cef8"] ;
181 -> 183 ;
184 [label=<gini = 0.0<br/>samples = 1<br/>value = [1, 0, 0, 0, 0, 0, 0, 0, 0, 0]<br/>class = CYT>, fillcolor="#e58139"] ;
183 -> 184 ;
185 [label=<gvh &le; -1.657<br/>gini = 0.48<br/>samples = 5<br/>value = [0, 0, 0, 0, 0, 0, 2, 3, 0, 0]<br/>class = NUC>, fillcolor="#e0bdf6"] ;
183 -> 185 ;
186 [label=<gini = 0.0<br/>samples = 1<br/>value = [0, 0, 0, 0, 0, 0, 1, 0, 0, 0]<br/>class = MIT>, fillcolor="#3c39e5"] ;
185 -> 186 ;
187 [label=<vac &le; 0.086<br/>gini = 0.375<br/>samples = 4<br/>value = [0, 0, 0, 0, 0, 0, 1, 3, 0, 0]<br/>class = NUC>, fillcolor="#c27bee"] ;
185 -> 187 ;
188 [label=<gini = 0.0<br/>samples = 1<br/>value = [0, 0, 0, 0, 0, 0, 1, 0, 0, 0]<br/>class = MIT>, fillcolor="#3c39e5"] ;
187 -> 188 ;
189 [label=<gini = 0.0<br/>samples = 3<br/>value = [0, 0, 0, 0, 0, 0, 0, 3, 0, 0]<br/>class = NUC>, fillcolor="#a339e5"] ;
187 -> 189 ;
190 [label=<mit &le; 0.404<br/>gini = 0.117<br/>samples = 16<br/>value = [1, 0, 0, 0, 0, 0, 0, 15, 0, 0]<br/>class = NUC>, fillcolor="#a946e7"] ;
172 -> 190 ;
191 [label=<gini = 0.0<br/>samples = 13<br/>value = [0, 0, 0, 0, 0, 0, 0, 13, 0, 0]<br/>class = NUC>, fillcolor="#a339e5"] ;
190 -> 191 ;
192 [label=<vac &le; 0.344<br/>gini = 0.444<br/>samples = 3<br/>value = [1, 0, 0, 0, 0, 0, 0, 2, 0, 0]<br/>class = NUC>, fillcolor="#d19cf2"] ;
190 -> 192 ;
193 [label=<gini = 0.0<br/>samples = 2<br/>value = [0, 0, 0, 0, 0, 0, 0, 2, 0, 0]<br/>class = NUC>, fillcolor="#a339e5"] ;
192 -> 193 ;
194 [label=<gini = 0.0<br/>samples = 1<br/>value = [1, 0, 0, 0, 0, 0, 0, 0, 0, 0]<br/>class = CYT>, fillcolor="#e58139"] ;
192 -> 194 ;
195 [label=<gini = 0.0<br/>samples = 1<br/>value = [1, 0, 0, 0, 0, 0, 0, 0, 0, 0]<br/>class = CYT>, fillcolor="#e58139"] ;
169 -> 195 ;
196 [label=<gini = 0.0<br/>samples = 1<br/>value = [0, 0, 0, 0, 0, 0, 0, 0, 1, 0]<br/>class = POX>, fillcolor="#e539c0"] ;
168 -> 196 ;
197 [label=<pox &le; 3.363<br/>gini = 0.632<br/>samples = 521<br/>value = [271, 1, 2, 0, 4, 6, 68, 147, 10, 12]<br/>class = CYT>, fillcolor="#f6d5bd"] ;
157 -> 197 ;
198 [label=<nuc &le; -0.349<br/>gini = 0.624<br/>samples = 515<br/>value = [271, 1, 2, 0, 4, 6, 67, 147, 5, 12]<br/>class = CYT>, fillcolor="#f6d5bc"] ;
197 -> 198 ;
199 [label=<gvh &le; 0.618<br/>gini = 0.625<br/>samples = 344<br/>value = [188, 1, 2, 0, 3, 5, 56, 76, 5, 8]<br/>class = CYT>, fillcolor="#f4caac"] ;
198 -> 199 ;
200 [label=<alm &le; 0.884<br/>gini = 0.577<br/>samples = 275<br/>value = [164, 0, 0, 0, 2, 2, 38, 60, 5, 4]<br/>class = CYT>, fillcolor="#f2c29f"] ;
199 -> 200 ;
201 [label=<vac &le; -0.086<br/>gini = 0.544<br/>samples = 208<br/>value = [131, 0, 0, 0, 2, 2, 17, 47, 5, 4]<br/>class = CYT>, fillcolor="#f1bd98"] ;
200 -> 201 ;
202 [label=<nuc &le; -0.586<br/>gini = 0.632<br/>samples = 75<br/>value = [38, 0, 0, 0, 0, 1, 9, 23, 4, 0]<br/>class = CYT>, fillcolor="#f8dbc6"] ;
201 -> 202 ;
203 [label=<gini = 0.0<br/>samples = 12<br/>value = [12, 0, 0, 0, 0, 0, 0, 0, 0, 0]<br/>class = CYT>, fillcolor="#e58139"] ;
202 -> 203 ;
204 [label=<mcg &le; 0.912<br/>gini = 0.672<br/>samples = 63<br/>value = [26, 0, 0, 0, 0, 1, 9, 23, 4, 0]<br/>class = CYT>, fillcolor="#fdf6f0"] ;
202 -> 204 ;
205 [label=<mit &le; -0.111<br/>gini = 0.683<br/>samples = 58<br/>value = [21, 0, 0, 0, 0, 1, 9, 23, 4, 0]<br/>class = NUC>, fillcolor="#faf4fe"] ;
204 -> 205 ;
206 [label=<vac &le; -0.431<br/>gini = 0.625<br/>samples = 42<br/>value = [18, 0, 0, 0, 0, 1, 3, 18, 2, 0]<br/>class = CYT>, fillcolor="#ffffff"] ;
205 -> 206 ;
207 [label=<gvh &le; -0.357<br/>gini = 0.597<br/>samples = 28<br/>value = [15, 0, 0, 0, 0, 1, 3, 9, 0, 0]<br/>class = CYT>, fillcolor="#f7d7c0"] ;
206 -> 207 ;
208 [label=<alm &le; 0.767<br/>gini = 0.292<br/>samples = 12<br/>value = [10, 0, 0, 0, 0, 0, 1, 1, 0, 0]<br/>class = CYT>, fillcolor="#ea985d"] ;
207 -> 208 ;
209 [label=<mit &le; -0.81<br/>gini = 0.165<br/>samples = 11<br/>value = [10, 0, 0, 0, 0, 0, 0, 1, 0, 0]<br/>class = CYT>, fillcolor="#e88e4d"] ;
208 -> 209 ;
210 [label=<alm &le; 0.302<br/>gini = 0.375<br/>samples = 4<br/>value = [3, 0, 0, 0, 0, 0, 0, 1, 0, 0]<br/>class = CYT>, fillcolor="#eeab7b"] ;
209 -> 210 ;
211 [label=<gini = 0.0<br/>samples = 2<br/>value = [2, 0, 0, 0, 0, 0, 0, 0, 0, 0]<br/>class = CYT>, fillcolor="#e58139"] ;
210 -> 211 ;
212 [label=<vac &le; -0.603<br/>gini = 0.5<br/>samples = 2<br/>value = [1, 0, 0, 0, 0, 0, 0, 1, 0, 0]<br/>class = CYT>, fillcolor="#ffffff"] ;
210 -> 212 ;
213 [label=<gini = 0.0<br/>samples = 1<br/>value = [1, 0, 0, 0, 0, 0, 0, 0, 0, 0]<br/>class = CYT>, fillcolor="#e58139"] ;
212 -> 213 ;
214 [label=<gini = 0.0<br/>samples = 1<br/>value = [0, 0, 0, 0, 0, 0, 0, 1, 0, 0]<br/>class = NUC>, fillcolor="#a339e5"] ;
212 -> 214 ;
215 [label=<gini = 0.0<br/>samples = 7<br/>value = [7, 0, 0, 0, 0, 0, 0, 0, 0, 0]<br/>class = CYT>, fillcolor="#e58139"] ;
209 -> 215 ;
216 [label=<gini = 0.0<br/>samples = 1<br/>value = [0, 0, 0, 0, 0, 0, 1, 0, 0, 0]<br/>class = MIT>, fillcolor="#3c39e5"] ;
208 -> 216 ;
217 [label=<mit &le; -0.773<br/>gini = 0.633<br/>samples = 16<br/>value = [5, 0, 0, 0, 0, 1, 2, 8, 0, 0]<br/>class = NUC>, fillcolor="#e6c9f8"] ;
207 -> 217 ;
218 [label=<mit &le; -0.92<br/>gini = 0.667<br/>samples = 6<br/>value = [3, 0, 0, 0, 0, 1, 1, 1, 0, 0]<br/>class = CYT>, fillcolor="#f5cdb0"] ;
217 -> 218 ;
219 [label=<mcg &le; -1.539<br/>gini = 0.375<br/>samples = 4<br/>value = [3, 0, 0, 0, 0, 0, 0, 1, 0, 0]<br/>class = CYT>, fillcolor="#eeab7b"] ;
218 -> 219 ;
220 [label=<gini = 0.0<br/>samples = 1<br/>value = [0, 0, 0, 0, 0, 0, 0, 1, 0, 0]<br/>class = NUC>, fillcolor="#a339e5"] ;
219 -> 220 ;
221 [label=<gini = 0.0<br/>samples = 3<br/>value = [3, 0, 0, 0, 0, 0, 0, 0, 0, 0]<br/>class = CYT>, fillcolor="#e58139"] ;
219 -> 221 ;
222 [label=<mit &le; -0.846<br/>gini = 0.5<br/>samples = 2<br/>value = [0, 0, 0, 0, 0, 1, 1, 0, 0, 0]<br/>class = ME3>, fillcolor="#ffffff"] ;
218 -> 222 ;
223 [label=<gini = 0.0<br/>samples = 1<br/>value = [0, 0, 0, 0, 0, 0, 1, 0, 0, 0]<br/>class = MIT>, fillcolor="#3c39e5"] ;
222 -> 223 ;
224 [label=<gini = 0.0<br/>samples = 1<br/>value = [0, 0, 0, 0, 0, 1, 0, 0, 0, 0]<br/>class = ME3>, fillcolor="#399de5"] ;
222 -> 224 ;
225 [label=<vac &le; -3.443<br/>gini = 0.46<br/>samples = 10<br/>value = [2, 0, 0, 0, 0, 0, 1, 7, 0, 0]<br/>class = NUC>, fillcolor="#c683ef"] ;
217 -> 225 ;
226 [label=<gini = 0.0<br/>samples = 1<br/>value = [0, 0, 0, 0, 0, 0, 1, 0, 0, 0]<br/>class = MIT>, fillcolor="#3c39e5"] ;
225 -> 226 ;
227 [label=<mcg &le; 0.619<br/>gini = 0.346<br/>samples = 9<br/>value = [2, 0, 0, 0, 0, 0, 0, 7, 0, 0]<br/>class = NUC>, fillcolor="#bd72ec"] ;
225 -> 227 ;
228 [label=<gvh &le; -0.194<br/>gini = 0.219<br/>samples = 8<br/>value = [1, 0, 0, 0, 0, 0, 0, 7, 0, 0]<br/>class = NUC>, fillcolor="#b055e9"] ;
227 -> 228 ;
229 [label=<vac &le; -1.205<br/>gini = 0.5<br/>samples = 2<br/>value = [1, 0, 0, 0, 0, 0, 0, 1, 0, 0]<br/>class = CYT>, fillcolor="#ffffff"] ;
228 -> 229 ;
230 [label=<gini = 0.0<br/>samples = 1<br/>value = [0, 0, 0, 0, 0, 0, 0, 1, 0, 0]<br/>class = NUC>, fillcolor="#a339e5"] ;
229 -> 230 ;
231 [label=<gini = 0.0<br/>samples = 1<br/>value = [1, 0, 0, 0, 0, 0, 0, 0, 0, 0]<br/>class = CYT>, fillcolor="#e58139"] ;
229 -> 231 ;
232 [label=<gini = 0.0<br/>samples = 6<br/>value = [0, 0, 0, 0, 0, 0, 0, 6, 0, 0]<br/>class = NUC>, fillcolor="#a339e5"] ;
228 -> 232 ;
233 [label=<gini = 0.0<br/>samples = 1<br/>value = [1, 0, 0, 0, 0, 0, 0, 0, 0, 0]<br/>class = CYT>, fillcolor="#e58139"] ;
227 -> 233 ;
234 [label=<gvh &le; -0.032<br/>gini = 0.52<br/>samples = 14<br/>value = [3, 0, 0, 0, 0, 0, 0, 9, 2, 0]<br/>class = NUC>, fillcolor="#cd93f1"] ;
206 -> 234 ;
235 [label=<mit &le; -1.067<br/>gini = 0.32<br/>samples = 10<br/>value = [2, 0, 0, 0, 0, 0, 0, 8, 0, 0]<br/>class = NUC>, fillcolor="#ba6aec"] ;
234 -> 235 ;
236 [label=<gini = 0.0<br/>samples = 1<br/>value = [1, 0, 0, 0, 0, 0, 0, 0, 0, 0]<br/>class = CYT>, fillcolor="#e58139"] ;
235 -> 236 ;
237 [label=<mit &le; -0.184<br/>gini = 0.198<br/>samples = 9<br/>value = [1, 0, 0, 0, 0, 0, 0, 8, 0, 0]<br/>class = NUC>, fillcolor="#ae52e8"] ;
235 -> 237 ;
238 [label=<gini = 0.0<br/>samples = 8<br/>value = [0, 0, 0, 0, 0, 0, 0, 8, 0, 0]<br/>class = NUC>, fillcolor="#a339e5"] ;
237 -> 238 ;
239 [label=<gini = 0.0<br/>samples = 1<br/>value = [1, 0, 0, 0, 0, 0, 0, 0, 0, 0]<br/>class = CYT>, fillcolor="#e58139"] ;
237 -> 239 ;
240 [label=<mit &le; -0.442<br/>gini = 0.625<br/>samples = 4<br/>value = [1, 0, 0, 0, 0, 0, 0, 1, 2, 0]<br/>class = POX>, fillcolor="#f6bdea"] ;
234 -> 240 ;
241 [label=<gvh &le; 0.171<br/>gini = 0.444<br/>samples = 3<br/>value = [1, 0, 0, 0, 0, 0, 0, 0, 2, 0]<br/>class = POX>, fillcolor="#f29ce0"] ;
240 -> 241 ;
242 [label=<gini = 0.0<br/>samples = 2<br/>value = [0, 0, 0, 0, 0, 0, 0, 0, 2, 0]<br/>class = POX>, fillcolor="#e539c0"] ;
241 -> 242 ;
243 [label=<gini = 0.0<br/>samples = 1<br/>value = [1, 0, 0, 0, 0, 0, 0, 0, 0, 0]<br/>class = CYT>, fillcolor="#e58139"] ;
241 -> 243 ;
244 [label=<gini = 0.0<br/>samples = 1<br/>value = [0, 0, 0, 0, 0, 0, 0, 1, 0, 0]<br/>class = NUC>, fillcolor="#a339e5"] ;
240 -> 244 ;
245 [label=<mcg &le; -1.429<br/>gini = 0.711<br/>samples = 16<br/>value = [3, 0, 0, 0, 0, 0, 6, 5, 2, 0]<br/>class = MIT>, fillcolor="#ededfd"] ;
205 -> 245 ;
246 [label=<gini = 0.0<br/>samples = 2<br/>value = [2, 0, 0, 0, 0, 0, 0, 0, 0, 0]<br/>class = CYT>, fillcolor="#e58139"] ;
245 -> 246 ;
247 [label=<mcg &le; -0.478<br/>gini = 0.663<br/>samples = 14<br/>value = [1, 0, 0, 0, 0, 0, 6, 5, 2, 0]<br/>class = MIT>, fillcolor="#e9e9fc"] ;
245 -> 247 ;
248 [label=<mcg &le; -1.247<br/>gini = 0.375<br/>samples = 4<br/>value = [0, 0, 0, 0, 0, 0, 1, 3, 0, 0]<br/>class = NUC>, fillcolor="#c27bee"] ;
247 -> 248 ;
249 [label=<gini = 0.0<br/>samples = 1<br/>value = [0, 0, 0, 0, 0, 0, 1, 0, 0, 0]<br/>class = MIT>, fillcolor="#3c39e5"] ;
248 -> 249 ;
250 [label=<gini = 0.0<br/>samples = 3<br/>value = [0, 0, 0, 0, 0, 0, 0, 3, 0, 0]<br/>class = NUC>, fillcolor="#a339e5"] ;
248 -> 250 ;
251 [label=<mit &le; 0.184<br/>gini = 0.66<br/>samples = 10<br/>value = [1, 0, 0, 0, 0, 0, 5, 2, 2, 0]<br/>class = MIT>, fillcolor="#b6b5f5"] ;
247 -> 251 ;
252 [label=<mcg &le; -0.149<br/>gini = 0.72<br/>samples = 5<br/>value = [1, 0, 0, 0, 0, 0, 1, 2, 1, 0]<br/>class = NUC>, fillcolor="#e8cef8"] ;
251 -> 252 ;
253 [label=<gvh &le; -0.316<br/>gini = 0.444<br/>samples = 3<br/>value = [0, 0, 0, 0, 0, 0, 1, 2, 0, 0]<br/>class = NUC>, fillcolor="#d19cf2"] ;
252 -> 253 ;
254 [label=<gini = 0.0<br/>samples = 1<br/>value = [0, 0, 0, 0, 0, 0, 1, 0, 0, 0]<br/>class = MIT>, fillcolor="#3c39e5"] ;
253 -> 254 ;
255 [label=<gini = 0.0<br/>samples = 2<br/>value = [0, 0, 0, 0, 0, 0, 0, 2, 0, 0]<br/>class = NUC>, fillcolor="#a339e5"] ;
253 -> 255 ;
256 [label=<mcg &le; 0.107<br/>gini = 0.5<br/>samples = 2<br/>value = [1, 0, 0, 0, 0, 0, 0, 0, 1, 0]<br/>class = CYT>, fillcolor="#ffffff"] ;
252 -> 256 ;
257 [label=<gini = 0.0<br/>samples = 1<br/>value = [0, 0, 0, 0, 0, 0, 0, 0, 1, 0]<br/>class = POX>, fillcolor="#e539c0"] ;
256 -> 257 ;
258 [label=<gini = 0.0<br/>samples = 1<br/>value = [1, 0, 0, 0, 0, 0, 0, 0, 0, 0]<br/>class = CYT>, fillcolor="#e58139"] ;
256 -> 258 ;
259 [label=<gvh &le; -0.967<br/>gini = 0.32<br/>samples = 5<br/>value = [0, 0, 0, 0, 0, 0, 4, 0, 1, 0]<br/>class = MIT>, fillcolor="#6d6aec"] ;
251 -> 259 ;
260 [label=<gini = 0.0<br/>samples = 1<br/>value = [0, 0, 0, 0, 0, 0, 0, 0, 1, 0]<br/>class = POX>, fillcolor="#e539c0"] ;
259 -> 260 ;
261 [label=<gini = 0.0<br/>samples = 4<br/>value = [0, 0, 0, 0, 0, 0, 4, 0, 0, 0]<br/>class = MIT>, fillcolor="#3c39e5"] ;
259 -> 261 ;
262 [label=<gini = 0.0<br/>samples = 5<br/>value = [5, 0, 0, 0, 0, 0, 0, 0, 0, 0]<br/>class = CYT>, fillcolor="#e58139"] ;
204 -> 262 ;
263 [label=<mit &le; 0.699<br/>gini = 0.474<br/>samples = 133<br/>value = [93, 0, 0, 0, 2, 1, 8, 24, 1, 4]<br/>class = CYT>, fillcolor="#efaf82"] ;
201 -> 263 ;
264 [label=<mcg &le; -0.332<br/>gini = 0.45<br/>samples = 128<br/>value = [92, 0, 0, 0, 2, 1, 6, 22, 1, 4]<br/>class = CYT>, fillcolor="#eeac7c"] ;
263 -> 264 ;
265 [label=<gvh &le; -0.682<br/>gini = 0.249<br/>samples = 44<br/>value = [38, 0, 0, 0, 1, 0, 1, 2, 0, 2]<br/>class = CYT>, fillcolor="#e99355"] ;
264 -> 265 ;
266 [label=<gvh &le; -0.763<br/>gini = 0.57<br/>samples = 16<br/>value = [10, 0, 0, 0, 1, 0, 1, 2, 0, 2]<br/>class = CYT>, fillcolor="#f0b78e"] ;
265 -> 266 ;
267 [label=<vac &le; 0.602<br/>gini = 0.516<br/>samples = 15<br/>value = [10, 0, 0, 0, 1, 0, 0, 2, 0, 2]<br/>class = CYT>, fillcolor="#efb185"] ;
266 -> 267 ;
268 [label=<mit &le; -0.773<br/>gini = 0.691<br/>samples = 9<br/>value = [4, 0, 0, 0, 1, 0, 0, 2, 0, 2]<br/>class = CYT>, fillcolor="#f8dbc6"] ;
267 -> 268 ;
269 [label=<mcg &le; -0.405<br/>gini = 0.444<br/>samples = 3<br/>value = [0, 0, 0, 0, 0, 0, 0, 1, 0, 2]<br/>class = VAC>, fillcolor="#f29cac"] ;
268 -> 269 ;
270 [label=<gini = 0.0<br/>samples = 2<br/>value = [0, 0, 0, 0, 0, 0, 0, 0, 0, 2]<br/>class = VAC>, fillcolor="#e53958"] ;
269 -> 270 ;
271 [label=<gini = 0.0<br/>samples = 1<br/>value = [0, 0, 0, 0, 0, 0, 0, 1, 0, 0]<br/>class = NUC>, fillcolor="#a339e5"] ;
269 -> 271 ;
272 [label=<alm &le; -0.222<br/>gini = 0.5<br/>samples = 6<br/>value = [4, 0, 0, 0, 1, 0, 0, 1, 0, 0]<br/>class = CYT>, fillcolor="#efb388"] ;
268 -> 272 ;
273 [label=<gini = 0.0<br/>samples = 1<br/>value = [0, 0, 0, 0, 1, 0, 0, 0, 0, 0]<br/>class = ME2>, fillcolor="#39e5c5"] ;
272 -> 273 ;
274 [label=<mit &le; -0.552<br/>gini = 0.32<br/>samples = 5<br/>value = [4, 0, 0, 0, 0, 0, 0, 1, 0, 0]<br/>class = CYT>, fillcolor="#eca06a"] ;
272 -> 274 ;
275 [label=<gini = 0.0<br/>samples = 3<br/>value = [3, 0, 0, 0, 0, 0, 0, 0, 0, 0]<br/>class = CYT>, fillcolor="#e58139"] ;
274 -> 275 ;
276 [label=<mit &le; -0.331<br/>gini = 0.5<br/>samples = 2<br/>value = [1, 0, 0, 0, 0, 0, 0, 1, 0, 0]<br/>class = CYT>, fillcolor="#ffffff"] ;
274 -> 276 ;
277 [label=<gini = 0.0<br/>samples = 1<br/>value = [0, 0, 0, 0, 0, 0, 0, 1, 0, 0]<br/>class = NUC>, fillcolor="#a339e5"] ;
276 -> 277 ;
278 [label=<gini = 0.0<br/>samples = 1<br/>value = [1, 0, 0, 0, 0, 0, 0, 0, 0, 0]<br/>class = CYT>, fillcolor="#e58139"] ;
276 -> 278 ;
279 [label=<gini = 0.0<br/>samples = 6<br/>value = [6, 0, 0, 0, 0, 0, 0, 0, 0, 0]<br/>class = CYT>, fillcolor="#e58139"] ;
267 -> 279 ;
280 [label=<gini = 0.0<br/>samples = 1<br/>value = [0, 0, 0, 0, 0, 0, 1, 0, 0, 0]<br/>class = MIT>, fillcolor="#3c39e5"] ;
266 -> 280 ;
281 [label=<gini = 0.0<br/>samples = 28<br/>value = [28, 0, 0, 0, 0, 0, 0, 0, 0, 0]<br/>class = CYT>, fillcolor="#e58139"] ;
265 -> 281 ;
282 [label=<mit &le; -0.92<br/>gini = 0.526<br/>samples = 84<br/>value = [54, 0, 0, 0, 1, 1, 5, 20, 1, 2]<br/>class = CYT>, fillcolor="#f1bc96"] ;
264 -> 282 ;
283 [label=<gvh &le; 0.171<br/>gini = 0.602<br/>samples = 14<br/>value = [5, 0, 0, 0, 0, 0, 2, 7, 0, 0]<br/>class = NUC>, fillcolor="#ebd3f9"] ;
282 -> 283 ;
284 [label=<vac &le; 0.086<br/>gini = 0.494<br/>samples = 9<br/>value = [1, 0, 0, 0, 0, 0, 2, 6, 0, 0]<br/>class = NUC>, fillcolor="#ca8ef0"] ;
283 -> 284 ;
285 [label=<mit &le; -1.067<br/>gini = 0.5<br/>samples = 2<br/>value = [1, 0, 0, 0, 0, 0, 1, 0, 0, 0]<br/>class = CYT>, fillcolor="#ffffff"] ;
284 -> 285 ;
286 [label=<gini = 0.0<br/>samples = 1<br/>value = [1, 0, 0, 0, 0, 0, 0, 0, 0, 0]<br/>class = CYT>, fillcolor="#e58139"] ;
285 -> 286 ;
287 [label=<gini = 0.0<br/>samples = 1<br/>value = [0, 0, 0, 0, 0, 0, 1, 0, 0, 0]<br/>class = MIT>, fillcolor="#3c39e5"] ;
285 -> 287 ;
288 [label=<mcg &le; -0.113<br/>gini = 0.245<br/>samples = 7<br/>value = [0, 0, 0, 0, 0, 0, 1, 6, 0, 0]<br/>class = NUC>, fillcolor="#b25ae9"] ;
284 -> 288 ;
289 [label=<gini = 0.0<br/>samples = 1<br/>value = [0, 0, 0, 0, 0, 0, 1, 0, 0, 0]<br/>class = MIT>, fillcolor="#3c39e5"] ;
288 -> 289 ;
290 [label=<gini = 0.0<br/>samples = 6<br/>value = [0, 0, 0, 0, 0, 0, 0, 6, 0, 0]<br/>class = NUC>, fillcolor="#a339e5"] ;
288 -> 290 ;
291 [label=<vac &le; 0.258<br/>gini = 0.32<br/>samples = 5<br/>value = [4, 0, 0, 0, 0, 0, 0, 1, 0, 0]<br/>class = CYT>, fillcolor="#eca06a"] ;
283 -> 291 ;
292 [label=<mcg &le; 0.217<br/>gini = 0.5<br/>samples = 2<br/>value = [1, 0, 0, 0, 0, 0, 0, 1, 0, 0]<br/>class = CYT>, fillcolor="#ffffff"] ;
291 -> 292 ;
293 [label=<gini = 0.0<br/>samples = 1<br/>value = [1, 0, 0, 0, 0, 0, 0, 0, 0, 0]<br/>class = CYT>, fillcolor="#e58139"] ;
292 -> 293 ;
294 [label=<gini = 0.0<br/>samples = 1<br/>value = [0, 0, 0, 0, 0, 0, 0, 1, 0, 0]<br/>class = NUC>, fillcolor="#a339e5"] ;
292 -> 294 ;
295 [label=<gini = 0.0<br/>samples = 3<br/>value = [3, 0, 0, 0, 0, 0, 0, 0, 0, 0]<br/>class = CYT>, fillcolor="#e58139"] ;
291 -> 295 ;
296 [label=<alm &le; -0.629<br/>gini = 0.472<br/>samples = 70<br/>value = [49, 0, 0, 0, 1, 1, 3, 13, 1, 2]<br/>class = CYT>, fillcolor="#efaf82"] ;
282 -> 296 ;
297 [label=<gvh &le; 0.009<br/>gini = 0.667<br/>samples = 3<br/>value = [0, 0, 0, 0, 1, 0, 1, 0, 1, 0]<br/>class = ME2>, fillcolor="#ffffff"] ;
296 -> 297 ;
298 [label=<gini = 0.0<br/>samples = 1<br/>value = [0, 0, 0, 0, 0, 0, 0, 0, 1, 0]<br/>class = POX>, fillcolor="#e539c0"] ;
297 -> 298 ;
299 [label=<mcg &le; 0.839<br/>gini = 0.5<br/>samples = 2<br/>value = [0, 0, 0, 0, 1, 0, 1, 0, 0, 0]<br/>class = ME2>, fillcolor="#ffffff"] ;
297 -> 299 ;
300 [label=<gini = 0.0<br/>samples = 1<br/>value = [0, 0, 0, 0, 1, 0, 0, 0, 0, 0]<br/>class = ME2>, fillcolor="#39e5c5"] ;
299 -> 300 ;
301 [label=<gini = 0.0<br/>samples = 1<br/>value = [0, 0, 0, 0, 0, 0, 1, 0, 0, 0]<br/>class = MIT>, fillcolor="#3c39e5"] ;
299 -> 301 ;
302 [label=<gvh &le; 0.537<br/>gini = 0.425<br/>samples = 67<br/>value = [49, 0, 0, 0, 0, 1, 2, 13, 0, 2]<br/>class = CYT>, fillcolor="#eeab7b"] ;
296 -> 302 ;
303 [label=<gvh &le; -1.251<br/>gini = 0.383<br/>samples = 64<br/>value = [49, 0, 0, 0, 0, 1, 1, 11, 0, 2]<br/>class = CYT>, fillcolor="#eca571"] ;
302 -> 303 ;
304 [label=<gini = 0.0<br/>samples = 2<br/>value = [0, 0, 0, 0, 0, 0, 0, 2, 0, 0]<br/>class = NUC>, fillcolor="#a339e5"] ;
303 -> 304 ;
305 [label=<mcg &le; 0.253<br/>gini = 0.353<br/>samples = 62<br/>value = [49, 0, 0, 0, 0, 1, 1, 9, 0, 2]<br/>class = CYT>, fillcolor="#eba06a"] ;
303 -> 305 ;
306 [label=<gvh &le; -0.194<br/>gini = 0.483<br/>samples = 38<br/>value = [26, 0, 0, 0, 0, 1, 1, 8, 0, 2]<br/>class = CYT>, fillcolor="#efb388"] ;
305 -> 306 ;
307 [label=<mcg &le; 0.034<br/>gini = 0.318<br/>samples = 22<br/>value = [18, 0, 0, 0, 0, 0, 1, 2, 0, 1]<br/>class = CYT>, fillcolor="#ea9a61"] ;
306 -> 307 ;
308 [label=<gini = 0.0<br/>samples = 13<br/>value = [13, 0, 0, 0, 0, 0, 0, 0, 0, 0]<br/>class = CYT>, fillcolor="#e58139"] ;
307 -> 308 ;
309 [label=<mit &le; -0.405<br/>gini = 0.617<br/>samples = 9<br/>value = [5, 0, 0, 0, 0, 0, 1, 2, 0, 1]<br/>class = CYT>, fillcolor="#f4c9aa"] ;
307 -> 309 ;
310 [label=<gini = 0.0<br/>samples = 3<br/>value = [3, 0, 0, 0, 0, 0, 0, 0, 0, 0]<br/>class = CYT>, fillcolor="#e58139"] ;
309 -> 310 ;
311 [label=<mit &le; -0.331<br/>gini = 0.722<br/>samples = 6<br/>value = [2, 0, 0, 0, 0, 0, 1, 2, 0, 1]<br/>class = CYT>, fillcolor="#ffffff"] ;
309 -> 311 ;
312 [label=<gini = 0.0<br/>samples = 1<br/>value = [0, 0, 0, 0, 0, 0, 0, 0, 0, 1]<br/>class = VAC>, fillcolor="#e53958"] ;
311 -> 312 ;
313 [label=<mit &le; 0.22<br/>gini = 0.64<br/>samples = 5<br/>value = [2, 0, 0, 0, 0, 0, 1, 2, 0, 0]<br/>class = CYT>, fillcolor="#ffffff"] ;
311 -> 313 ;
314 [label=<alm &le; 0.767<br/>gini = 0.444<br/>samples = 3<br/>value = [1, 0, 0, 0, 0, 0, 0, 2, 0, 0]<br/>class = NUC>, fillcolor="#d19cf2"] ;
313 -> 314 ;
315 [label=<gini = 0.0<br/>samples = 2<br/>value = [0, 0, 0, 0, 0, 0, 0, 2, 0, 0]<br/>class = NUC>, fillcolor="#a339e5"] ;
314 -> 315 ;
316 [label=<gini = 0.0<br/>samples = 1<br/>value = [1, 0, 0, 0, 0, 0, 0, 0, 0, 0]<br/>class = CYT>, fillcolor="#e58139"] ;
314 -> 316 ;
317 [label=<vac &le; 0.602<br/>gini = 0.5<br/>samples = 2<br/>value = [1, 0, 0, 0, 0, 0, 1, 0, 0, 0]<br/>class = CYT>, fillcolor="#ffffff"] ;
313 -> 317 ;
318 [label=<gini = 0.0<br/>samples = 1<br/>value = [0, 0, 0, 0, 0, 0, 1, 0, 0, 0]<br/>class = MIT>, fillcolor="#3c39e5"] ;
317 -> 318 ;
319 [label=<gini = 0.0<br/>samples = 1<br/>value = [1, 0, 0, 0, 0, 0, 0, 0, 0, 0]<br/>class = CYT>, fillcolor="#e58139"] ;
317 -> 319 ;
320 [label=<alm &le; -0.047<br/>gini = 0.602<br/>samples = 16<br/>value = [8, 0, 0, 0, 0, 1, 0, 6, 0, 1]<br/>class = CYT>, fillcolor="#fae6d7"] ;
306 -> 320 ;
321 [label=<alm &le; -0.512<br/>gini = 0.5<br/>samples = 6<br/>value = [4, 0, 0, 0, 0, 1, 0, 0, 0, 1]<br/>class = CYT>, fillcolor="#efb388"] ;
320 -> 321 ;
322 [label=<mcg &le; -0.222<br/>gini = 0.5<br/>samples = 2<br/>value = [0, 0, 0, 0, 0, 1, 0, 0, 0, 1]<br/>class = ME3>, fillcolor="#ffffff"] ;
321 -> 322 ;
323 [label=<gini = 0.0<br/>samples = 1<br/>value = [0, 0, 0, 0, 0, 0, 0, 0, 0, 1]<br/>class = VAC>, fillcolor="#e53958"] ;
322 -> 323 ;
324 [label=<gini = 0.0<br/>samples = 1<br/>value = [0, 0, 0, 0, 0, 1, 0, 0, 0, 0]<br/>class = ME3>, fillcolor="#399de5"] ;
322 -> 324 ;
325 [label=<gini = 0.0<br/>samples = 4<br/>value = [4, 0, 0, 0, 0, 0, 0, 0, 0, 0]<br/>class = CYT>, fillcolor="#e58139"] ;
321 -> 325 ;
326 [label=<mit &le; -0.736<br/>gini = 0.48<br/>samples = 10<br/>value = [4, 0, 0, 0, 0, 0, 0, 6, 0, 0]<br/>class = NUC>, fillcolor="#e0bdf6"] ;
320 -> 326 ;
327 [label=<gini = 0.0<br/>samples = 2<br/>value = [2, 0, 0, 0, 0, 0, 0, 0, 0, 0]<br/>class = CYT>, fillcolor="#e58139"] ;
326 -> 327 ;
328 [label=<vac &le; 0.086<br/>gini = 0.375<br/>samples = 8<br/>value = [2, 0, 0, 0, 0, 0, 0, 6, 0, 0]<br/>class = NUC>, fillcolor="#c27bee"] ;
326 -> 328 ;
329 [label=<gini = 0.0<br/>samples = 1<br/>value = [1, 0, 0, 0, 0, 0, 0, 0, 0, 0]<br/>class = CYT>, fillcolor="#e58139"] ;
328 -> 329 ;
330 [label=<alm &le; 0.651<br/>gini = 0.245<br/>samples = 7<br/>value = [1, 0, 0, 0, 0, 0, 0, 6, 0, 0]<br/>class = NUC>, fillcolor="#b25ae9"] ;
328 -> 330 ;
331 [label=<gini = 0.0<br/>samples = 6<br/>value = [0, 0, 0, 0, 0, 0, 0, 6, 0, 0]<br/>class = NUC>, fillcolor="#a339e5"] ;
330 -> 331 ;
332 [label=<gini = 0.0<br/>samples = 1<br/>value = [1, 0, 0, 0, 0, 0, 0, 0, 0, 0]<br/>class = CYT>, fillcolor="#e58139"] ;
330 -> 332 ;
333 [label=<alm &le; -0.163<br/>gini = 0.08<br/>samples = 24<br/>value = [23, 0, 0, 0, 0, 0, 0, 1, 0, 0]<br/>class = CYT>, fillcolor="#e68642"] ;
305 -> 333 ;
334 [label=<vac &le; 0.258<br/>gini = 0.32<br/>samples = 5<br/>value = [4, 0, 0, 0, 0, 0, 0, 1, 0, 0]<br/>class = CYT>, fillcolor="#eca06a"] ;
333 -> 334 ;
335 [label=<gini = 0.0<br/>samples = 1<br/>value = [0, 0, 0, 0, 0, 0, 0, 1, 0, 0]<br/>class = NUC>, fillcolor="#a339e5"] ;
334 -> 335 ;
336 [label=<gini = 0.0<br/>samples = 4<br/>value = [4, 0, 0, 0, 0, 0, 0, 0, 0, 0]<br/>class = CYT>, fillcolor="#e58139"] ;
334 -> 336 ;
337 [label=<gini = 0.0<br/>samples = 19<br/>value = [19, 0, 0, 0, 0, 0, 0, 0, 0, 0]<br/>class = CYT>, fillcolor="#e58139"] ;
333 -> 337 ;
338 [label=<alm &le; -0.105<br/>gini = 0.444<br/>samples = 3<br/>value = [0, 0, 0, 0, 0, 0, 1, 2, 0, 0]<br/>class = NUC>, fillcolor="#d19cf2"] ;
302 -> 338 ;
339 [label=<gini = 0.0<br/>samples = 1<br/>value = [0, 0, 0, 0, 0, 0, 1, 0, 0, 0]<br/>class = MIT>, fillcolor="#3c39e5"] ;
338 -> 339 ;
340 [label=<gini = 0.0<br/>samples = 2<br/>value = [0, 0, 0, 0, 0, 0, 0, 2, 0, 0]<br/>class = NUC>, fillcolor="#a339e5"] ;
338 -> 340 ;
341 [label=<vac &le; 0.258<br/>gini = 0.64<br/>samples = 5<br/>value = [1, 0, 0, 0, 0, 0, 2, 2, 0, 0]<br/>class = MIT>, fillcolor="#ffffff"] ;
263 -> 341 ;
342 [label=<mcg &le; -0.99<br/>gini = 0.5<br/>samples = 4<br/>value = [0, 0, 0, 0, 0, 0, 2, 2, 0, 0]<br/>class = MIT>, fillcolor="#ffffff"] ;
341 -> 342 ;
343 [label=<gini = 0.0<br/>samples = 1<br/>value = [0, 0, 0, 0, 0, 0, 0, 1, 0, 0]<br/>class = NUC>, fillcolor="#a339e5"] ;
342 -> 343 ;
344 [label=<vac &le; 0.086<br/>gini = 0.444<br/>samples = 3<br/>value = [0, 0, 0, 0, 0, 0, 2, 1, 0, 0]<br/>class = MIT>, fillcolor="#9e9cf2"] ;
342 -> 344 ;
345 [label=<gini = 0.0<br/>samples = 1<br/>value = [0, 0, 0, 0, 0, 0, 0, 1, 0, 0]<br/>class = NUC>, fillcolor="#a339e5"] ;
344 -> 345 ;
346 [label=<gini = 0.0<br/>samples = 2<br/>value = [0, 0, 0, 0, 0, 0, 2, 0, 0, 0]<br/>class = MIT>, fillcolor="#3c39e5"] ;
344 -> 346 ;
347 [label=<gini = 0.0<br/>samples = 1<br/>value = [1, 0, 0, 0, 0, 0, 0, 0, 0, 0]<br/>class = CYT>, fillcolor="#e58139"] ;
341 -> 347 ;
348 [label=<mcg &le; 0.18<br/>gini = 0.622<br/>samples = 67<br/>value = [33, 0, 0, 0, 0, 0, 21, 13, 0, 0]<br/>class = CYT>, fillcolor="#f8decb"] ;
200 -> 348 ;
349 [label=<gvh &le; 0.212<br/>gini = 0.538<br/>samples = 48<br/>value = [30, 0, 0, 0, 0, 0, 10, 8, 0, 0]<br/>class = CYT>, fillcolor="#f1bd97"] ;
348 -> 349 ;
350 [label=<mcg &le; -0.917<br/>gini = 0.492<br/>samples = 43<br/>value = [29, 0, 0, 0, 0, 0, 7, 7, 0, 0]<br/>class = CYT>, fillcolor="#efb286"] ;
349 -> 350 ;
351 [label=<mcg &le; -0.99<br/>gini = 0.594<br/>samples = 8<br/>value = [3, 0, 0, 0, 0, 0, 1, 4, 0, 0]<br/>class = NUC>, fillcolor="#edd7fa"] ;
350 -> 351 ;
352 [label=<gvh &le; -0.967<br/>gini = 0.375<br/>samples = 4<br/>value = [3, 0, 0, 0, 0, 0, 1, 0, 0, 0]<br/>class = CYT>, fillcolor="#eeab7b"] ;
351 -> 352 ;
353 [label=<gini = 0.0<br/>samples = 3<br/>value = [3, 0, 0, 0, 0, 0, 0, 0, 0, 0]<br/>class = CYT>, fillcolor="#e58139"] ;
352 -> 353 ;
354 [label=<gini = 0.0<br/>samples = 1<br/>value = [0, 0, 0, 0, 0, 0, 1, 0, 0, 0]<br/>class = MIT>, fillcolor="#3c39e5"] ;
352 -> 354 ;
355 [label=<gini = 0.0<br/>samples = 4<br/>value = [0, 0, 0, 0, 0, 0, 0, 4, 0, 0]<br/>class = NUC>, fillcolor="#a339e5"] ;
351 -> 355 ;
356 [label=<mit &le; -0.405<br/>gini = 0.411<br/>samples = 35<br/>value = [26, 0, 0, 0, 0, 0, 6, 3, 0, 0]<br/>class = CYT>, fillcolor="#eda876"] ;
350 -> 356 ;
357 [label=<mit &le; -1.104<br/>gini = 0.198<br/>samples = 18<br/>value = [16, 0, 0, 0, 0, 0, 0, 2, 0, 0]<br/>class = CYT>, fillcolor="#e89152"] ;
356 -> 357 ;
358 [label=<gini = 0.0<br/>samples = 1<br/>value = [0, 0, 0, 0, 0, 0, 0, 1, 0, 0]<br/>class = NUC>, fillcolor="#a339e5"] ;
357 -> 358 ;
359 [label=<gvh &le; -1.007<br/>gini = 0.111<br/>samples = 17<br/>value = [16, 0, 0, 0, 0, 0, 0, 1, 0, 0]<br/>class = CYT>, fillcolor="#e78945"] ;
357 -> 359 ;
360 [label=<alm &le; 1.233<br/>gini = 0.444<br/>samples = 3<br/>value = [2, 0, 0, 0, 0, 0, 0, 1, 0, 0]<br/>class = CYT>, fillcolor="#f2c09c"] ;
359 -> 360 ;
361 [label=<gini = 0.0<br/>samples = 1<br/>value = [0, 0, 0, 0, 0, 0, 0, 1, 0, 0]<br/>class = NUC>, fillcolor="#a339e5"] ;
360 -> 361 ;
362 [label=<gini = 0.0<br/>samples = 2<br/>value = [2, 0, 0, 0, 0, 0, 0, 0, 0, 0]<br/>class = CYT>, fillcolor="#e58139"] ;
360 -> 362 ;
363 [label=<gini = 0.0<br/>samples = 14<br/>value = [14, 0, 0, 0, 0, 0, 0, 0, 0, 0]<br/>class = CYT>, fillcolor="#e58139"] ;
359 -> 363 ;
364 [label=<vac &le; -0.603<br/>gini = 0.526<br/>samples = 17<br/>value = [10, 0, 0, 0, 0, 0, 6, 1, 0, 0]<br/>class = CYT>, fillcolor="#f6d1b7"] ;
356 -> 364 ;
365 [label=<alm &le; 1.0<br/>gini = 0.165<br/>samples = 11<br/>value = [10, 0, 0, 0, 0, 0, 1, 0, 0, 0]<br/>class = CYT>, fillcolor="#e88e4d"] ;
364 -> 365 ;
366 [label=<gini = 0.0<br/>samples = 1<br/>value = [0, 0, 0, 0, 0, 0, 1, 0, 0, 0]<br/>class = MIT>, fillcolor="#3c39e5"] ;
365 -> 366 ;
367 [label=<gini = 0.0<br/>samples = 10<br/>value = [10, 0, 0, 0, 0, 0, 0, 0, 0, 0]<br/>class = CYT>, fillcolor="#e58139"] ;
365 -> 367 ;
368 [label=<vac &le; -0.345<br/>gini = 0.278<br/>samples = 6<br/>value = [0, 0, 0, 0, 0, 0, 5, 1, 0, 0]<br/>class = MIT>, fillcolor="#6361ea"] ;
364 -> 368 ;
369 [label=<gini = 0.0<br/>samples = 1<br/>value = [0, 0, 0, 0, 0, 0, 0, 1, 0, 0]<br/>class = NUC>, fillcolor="#a339e5"] ;
368 -> 369 ;
370 [label=<gini = 0.0<br/>samples = 5<br/>value = [0, 0, 0, 0, 0, 0, 5, 0, 0, 0]<br/>class = MIT>, fillcolor="#3c39e5"] ;
368 -> 370 ;
371 [label=<vac &le; -0.086<br/>gini = 0.56<br/>samples = 5<br/>value = [1, 0, 0, 0, 0, 0, 3, 1, 0, 0]<br/>class = MIT>, fillcolor="#9e9cf2"] ;
349 -> 371 ;
372 [label=<mcg &le; -0.149<br/>gini = 0.5<br/>samples = 2<br/>value = [1, 0, 0, 0, 0, 0, 0, 1, 0, 0]<br/>class = CYT>, fillcolor="#ffffff"] ;
371 -> 372 ;
373 [label=<gini = 0.0<br/>samples = 1<br/>value = [1, 0, 0, 0, 0, 0, 0, 0, 0, 0]<br/>class = CYT>, fillcolor="#e58139"] ;
372 -> 373 ;
374 [label=<gini = 0.0<br/>samples = 1<br/>value = [0, 0, 0, 0, 0, 0, 0, 1, 0, 0]<br/>class = NUC>, fillcolor="#a339e5"] ;
372 -> 374 ;
375 [label=<gini = 0.0<br/>samples = 3<br/>value = [0, 0, 0, 0, 0, 0, 3, 0, 0, 0]<br/>class = MIT>, fillcolor="#3c39e5"] ;
371 -> 375 ;
376 [label=<mit &le; 0.846<br/>gini = 0.571<br/>samples = 19<br/>value = [3, 0, 0, 0, 0, 0, 11, 5, 0, 0]<br/>class = MIT>, fillcolor="#abaaf4"] ;
348 -> 376 ;
377 [label=<mit &le; 0.073<br/>gini = 0.491<br/>samples = 17<br/>value = [1, 0, 0, 0, 0, 0, 11, 5, 0, 0]<br/>class = MIT>, fillcolor="#9d9cf2"] ;
376 -> 377 ;
378 [label=<mcg &le; 0.619<br/>gini = 0.5<br/>samples = 10<br/>value = [0, 0, 0, 0, 0, 0, 5, 5, 0, 0]<br/>class = MIT>, fillcolor="#ffffff"] ;
377 -> 378 ;
379 [label=<gvh &le; 0.171<br/>gini = 0.32<br/>samples = 5<br/>value = [0, 0, 0, 0, 0, 0, 1, 4, 0, 0]<br/>class = NUC>, fillcolor="#ba6aec"] ;
378 -> 379 ;
380 [label=<gini = 0.0<br/>samples = 4<br/>value = [0, 0, 0, 0, 0, 0, 0, 4, 0, 0]<br/>class = NUC>, fillcolor="#a339e5"] ;
379 -> 380 ;
381 [label=<gini = 0.0<br/>samples = 1<br/>value = [0, 0, 0, 0, 0, 0, 1, 0, 0, 0]<br/>class = MIT>, fillcolor="#3c39e5"] ;
379 -> 381 ;
382 [label=<mcg &le; 1.424<br/>gini = 0.32<br/>samples = 5<br/>value = [0, 0, 0, 0, 0, 0, 4, 1, 0, 0]<br/>class = MIT>, fillcolor="#6d6aec"] ;
378 -> 382 ;
383 [label=<gini = 0.0<br/>samples = 4<br/>value = [0, 0, 0, 0, 0, 0, 4, 0, 0, 0]<br/>class = MIT>, fillcolor="#3c39e5"] ;
382 -> 383 ;
384 [label=<gini = 0.0<br/>samples = 1<br/>value = [0, 0, 0, 0, 0, 0, 0, 1, 0, 0]<br/>class = NUC>, fillcolor="#a339e5"] ;
382 -> 384 ;
385 [label=<gvh &le; 0.374<br/>gini = 0.245<br/>samples = 7<br/>value = [1, 0, 0, 0, 0, 0, 6, 0, 0, 0]<br/>class = MIT>, fillcolor="#5d5ae9"] ;
377 -> 385 ;
386 [label=<gini = 0.0<br/>samples = 6<br/>value = [0, 0, 0, 0, 0, 0, 6, 0, 0, 0]<br/>class = MIT>, fillcolor="#3c39e5"] ;
385 -> 386 ;
387 [label=<gini = 0.0<br/>samples = 1<br/>value = [1, 0, 0, 0, 0, 0, 0, 0, 0, 0]<br/>class = CYT>, fillcolor="#e58139"] ;
385 -> 387 ;
388 [label=<gini = 0.0<br/>samples = 2<br/>value = [2, 0, 0, 0, 0, 0, 0, 0, 0, 0]<br/>class = CYT>, fillcolor="#e58139"] ;
376 -> 388 ;
389 [label=<alm &le; -0.28<br/>gini = 0.751<br/>samples = 69<br/>value = [24, 1, 2, 0, 1, 3, 18, 16, 0, 4]<br/>class = CYT>, fillcolor="#fcf0e8"] ;
199 -> 389 ;
390 [label=<vac &le; -0.947<br/>gini = 0.699<br/>samples = 17<br/>value = [4, 0, 1, 0, 1, 1, 8, 2, 0, 0]<br/>class = MIT>, fillcolor="#c3c2f7"] ;
389 -> 390 ;
391 [label=<vac &le; -1.808<br/>gini = 0.444<br/>samples = 3<br/>value = [2, 0, 1, 0, 0, 0, 0, 0, 0, 0]<br/>class = CYT>, fillcolor="#f2c09c"] ;
390 -> 391 ;
392 [label=<gini = 0.0<br/>samples = 1<br/>value = [0, 0, 1, 0, 0, 0, 0, 0, 0, 0]<br/>class = EXC>, fillcolor="#7be539"] ;
391 -> 392 ;
393 [label=<gini = 0.0<br/>samples = 2<br/>value = [2, 0, 0, 0, 0, 0, 0, 0, 0, 0]<br/>class = CYT>, fillcolor="#e58139"] ;
391 -> 393 ;
394 [label=<alm &le; -0.629<br/>gini = 0.622<br/>samples = 14<br/>value = [2, 0, 0, 0, 1, 1, 8, 2, 0, 0]<br/>class = MIT>, fillcolor="#9e9cf2"] ;
390 -> 394 ;
395 [label=<mit &le; -0.589<br/>gini = 0.625<br/>samples = 4<br/>value = [2, 0, 0, 0, 1, 0, 1, 0, 0, 0]<br/>class = CYT>, fillcolor="#f6d5bd"] ;
394 -> 395 ;
396 [label=<gini = 0.0<br/>samples = 1<br/>value = [0, 0, 0, 0, 1, 0, 0, 0, 0, 0]<br/>class = ME2>, fillcolor="#39e5c5"] ;
395 -> 396 ;
397 [label=<gvh &le; 1.025<br/>gini = 0.444<br/>samples = 3<br/>value = [2, 0, 0, 0, 0, 0, 1, 0, 0, 0]<br/>class = CYT>, fillcolor="#f2c09c"] ;
395 -> 397 ;
398 [label=<vac &le; -0.345<br/>gini = 0.5<br/>samples = 2<br/>value = [1, 0, 0, 0, 0, 0, 1, 0, 0, 0]<br/>class = CYT>, fillcolor="#ffffff"] ;
397 -> 398 ;
399 [label=<gini = 0.0<br/>samples = 1<br/>value = [1, 0, 0, 0, 0, 0, 0, 0, 0, 0]<br/>class = CYT>, fillcolor="#e58139"] ;
398 -> 399 ;
400 [label=<gini = 0.0<br/>samples = 1<br/>value = [0, 0, 0, 0, 0, 0, 1, 0, 0, 0]<br/>class = MIT>, fillcolor="#3c39e5"] ;
398 -> 400 ;
401 [label=<gini = 0.0<br/>samples = 1<br/>value = [1, 0, 0, 0, 0, 0, 0, 0, 0, 0]<br/>class = CYT>, fillcolor="#e58139"] ;
397 -> 401 ;
402 [label=<mcg &le; 0.4<br/>gini = 0.46<br/>samples = 10<br/>value = [0, 0, 0, 0, 0, 1, 7, 2, 0, 0]<br/>class = MIT>, fillcolor="#8583ef"] ;
394 -> 402 ;
403 [label=<vac &le; -0.086<br/>gini = 0.64<br/>samples = 5<br/>value = [0, 0, 0, 0, 0, 1, 2, 2, 0, 0]<br/>class = MIT>, fillcolor="#ffffff"] ;
402 -> 403 ;
404 [label=<alm &le; -0.512<br/>gini = 0.444<br/>samples = 3<br/>value = [0, 0, 0, 0, 0, 1, 2, 0, 0, 0]<br/>class = MIT>, fillcolor="#9e9cf2"] ;
403 -> 404 ;
405 [label=<gini = 0.0<br/>samples = 1<br/>value = [0, 0, 0, 0, 0, 1, 0, 0, 0, 0]<br/>class = ME3>, fillcolor="#399de5"] ;
404 -> 405 ;
406 [label=<gini = 0.0<br/>samples = 2<br/>value = [0, 0, 0, 0, 0, 0, 2, 0, 0, 0]<br/>class = MIT>, fillcolor="#3c39e5"] ;
404 -> 406 ;
407 [label=<gini = 0.0<br/>samples = 2<br/>value = [0, 0, 0, 0, 0, 0, 0, 2, 0, 0]<br/>class = NUC>, fillcolor="#a339e5"] ;
403 -> 407 ;
408 [label=<gini = 0.0<br/>samples = 5<br/>value = [0, 0, 0, 0, 0, 0, 5, 0, 0, 0]<br/>class = MIT>, fillcolor="#3c39e5"] ;
402 -> 408 ;
409 [label=<alm &le; 0.418<br/>gini = 0.734<br/>samples = 52<br/>value = [20, 1, 1, 0, 0, 2, 10, 14, 0, 4]<br/>class = CYT>, fillcolor="#fbebe0"] ;
389 -> 409 ;
410 [label=<vac &le; -0.345<br/>gini = 0.706<br/>samples = 29<br/>value = [13, 1, 1, 0, 0, 2, 2, 8, 0, 2]<br/>class = CYT>, fillcolor="#f9e1d0"] ;
409 -> 410 ;
411 [label=<gini = 0.0<br/>samples = 2<br/>value = [0, 0, 0, 0, 0, 0, 0, 2, 0, 0]<br/>class = NUC>, fillcolor="#a339e5"] ;
410 -> 411 ;
412 [label=<mit &le; -0.037<br/>gini = 0.7<br/>samples = 27<br/>value = [13, 1, 1, 0, 0, 2, 2, 6, 0, 2]<br/>class = CYT>, fillcolor="#f6d5bd"] ;
410 -> 412 ;
413 [label=<gvh &le; 0.7<br/>gini = 0.554<br/>samples = 17<br/>value = [11, 0, 1, 0, 0, 1, 1, 2, 0, 1]<br/>class = CYT>, fillcolor="#efb388"] ;
412 -> 413 ;
414 [label=<gini = 0.0<br/>samples = 1<br/>value = [0, 0, 0, 0, 0, 0, 0, 0, 0, 1]<br/>class = VAC>, fillcolor="#e53958"] ;
413 -> 414 ;
415 [label=<vac &le; -0.0<br/>gini = 0.5<br/>samples = 16<br/>value = [11, 0, 1, 0, 0, 1, 1, 2, 0, 0]<br/>class = CYT>, fillcolor="#eeae80"] ;
413 -> 415 ;
416 [label=<mcg &le; 0.765<br/>gini = 0.72<br/>samples = 5<br/>value = [2, 0, 1, 0, 0, 1, 0, 1, 0, 0]<br/>class = CYT>, fillcolor="#f8e0ce"] ;
415 -> 416 ;
417 [label=<mit &le; -0.662<br/>gini = 0.667<br/>samples = 3<br/>value = [0, 0, 1, 0, 0, 1, 0, 1, 0, 0]<br/>class = EXC>, fillcolor="#ffffff"] ;
416 -> 417 ;
418 [label=<gini = 0.0<br/>samples = 1<br/>value = [0, 0, 0, 0, 0, 0, 0, 1, 0, 0]<br/>class = NUC>, fillcolor="#a339e5"] ;
417 -> 418 ;
419 [label=<mcg &le; -0.076<br/>gini = 0.5<br/>samples = 2<br/>value = [0, 0, 1, 0, 0, 1, 0, 0, 0, 0]<br/>class = EXC>, fillcolor="#ffffff"] ;
417 -> 419 ;
420 [label=<gini = 0.0<br/>samples = 1<br/>value = [0, 0, 0, 0, 0, 1, 0, 0, 0, 0]<br/>class = ME3>, fillcolor="#399de5"] ;
419 -> 420 ;
421 [label=<gini = 0.0<br/>samples = 1<br/>value = [0, 0, 1, 0, 0, 0, 0, 0, 0, 0]<br/>class = EXC>, fillcolor="#7be539"] ;
419 -> 421 ;
422 [label=<gini = 0.0<br/>samples = 2<br/>value = [2, 0, 0, 0, 0, 0, 0, 0, 0, 0]<br/>class = CYT>, fillcolor="#e58139"] ;
416 -> 422 ;
423 [label=<alm &le; -0.047<br/>gini = 0.314<br/>samples = 11<br/>value = [9, 0, 0, 0, 0, 0, 1, 1, 0, 0]<br/>class = CYT>, fillcolor="#ea9a61"] ;
415 -> 423 ;
424 [label=<mit &le; -0.846<br/>gini = 0.667<br/>samples = 3<br/>value = [1, 0, 0, 0, 0, 0, 1, 1, 0, 0]<br/>class = CYT>, fillcolor="#ffffff"] ;
423 -> 424 ;
425 [label=<gini = 0.0<br/>samples = 1<br/>value = [0, 0, 0, 0, 0, 0, 0, 1, 0, 0]<br/>class = NUC>, fillcolor="#a339e5"] ;
424 -> 425 ;
426 [label=<mcg &le; -1.21<br/>gini = 0.5<br/>samples = 2<br/>value = [1, 0, 0, 0, 0, 0, 1, 0, 0, 0]<br/>class = CYT>, fillcolor="#ffffff"] ;
424 -> 426 ;
427 [label=<gini = 0.0<br/>samples = 1<br/>value = [1, 0, 0, 0, 0, 0, 0, 0, 0, 0]<br/>class = CYT>, fillcolor="#e58139"] ;
426 -> 427 ;
428 [label=<gini = 0.0<br/>samples = 1<br/>value = [0, 0, 0, 0, 0, 0, 1, 0, 0, 0]<br/>class = MIT>, fillcolor="#3c39e5"] ;
426 -> 428 ;
429 [label=<gini = 0.0<br/>samples = 8<br/>value = [8, 0, 0, 0, 0, 0, 0, 0, 0, 0]<br/>class = CYT>, fillcolor="#e58139"] ;
423 -> 429 ;
430 [label=<mit &le; 0.331<br/>gini = 0.76<br/>samples = 10<br/>value = [2, 1, 0, 0, 0, 1, 1, 4, 0, 1]<br/>class = NUC>, fillcolor="#e8cef8"] ;
412 -> 430 ;
431 [label=<mcg &le; 1.058<br/>gini = 0.688<br/>samples = 8<br/>value = [0, 1, 0, 0, 0, 1, 1, 4, 0, 1]<br/>class = NUC>, fillcolor="#d8aaf4"] ;
430 -> 431 ;
432 [label=<vac &le; 0.946<br/>gini = 0.5<br/>samples = 6<br/>value = [0, 0, 0, 0, 0, 1, 1, 4, 0, 0]<br/>class = NUC>, fillcolor="#c888ef"] ;
431 -> 432 ;
433 [label=<mcg &le; -1.32<br/>gini = 0.32<br/>samples = 5<br/>value = [0, 0, 0, 0, 0, 1, 0, 4, 0, 0]<br/>class = NUC>, fillcolor="#ba6aec"] ;
432 -> 433 ;
434 [label=<gini = 0.0<br/>samples = 1<br/>value = [0, 0, 0, 0, 0, 1, 0, 0, 0, 0]<br/>class = ME3>, fillcolor="#399de5"] ;
433 -> 434 ;
435 [label=<gini = 0.0<br/>samples = 4<br/>value = [0, 0, 0, 0, 0, 0, 0, 4, 0, 0]<br/>class = NUC>, fillcolor="#a339e5"] ;
433 -> 435 ;
436 [label=<gini = 0.0<br/>samples = 1<br/>value = [0, 0, 0, 0, 0, 0, 1, 0, 0, 0]<br/>class = MIT>, fillcolor="#3c39e5"] ;
432 -> 436 ;
437 [label=<mcg &le; 1.424<br/>gini = 0.5<br/>samples = 2<br/>value = [0, 1, 0, 0, 0, 0, 0, 0, 0, 1]<br/>class = ERL>, fillcolor="#ffffff"] ;
431 -> 437 ;
438 [label=<gini = 0.0<br/>samples = 1<br/>value = [0, 0, 0, 0, 0, 0, 0, 0, 0, 1]<br/>class = VAC>, fillcolor="#e53958"] ;
437 -> 438 ;
439 [label=<gini = 0.0<br/>samples = 1<br/>value = [0, 1, 0, 0, 0, 0, 0, 0, 0, 0]<br/>class = ERL>, fillcolor="#e2e539"] ;
437 -> 439 ;
440 [label=<gini = 0.0<br/>samples = 2<br/>value = [2, 0, 0, 0, 0, 0, 0, 0, 0, 0]<br/>class = CYT>, fillcolor="#e58139"] ;
430 -> 440 ;
441 [label=<mit &le; -0.552<br/>gini = 0.711<br/>samples = 23<br/>value = [7, 0, 0, 0, 0, 0, 8, 6, 0, 2]<br/>class = MIT>, fillcolor="#f3f3fd"] ;
409 -> 441 ;
442 [label=<mcg &le; -0.332<br/>gini = 0.694<br/>samples = 14<br/>value = [4, 0, 0, 0, 0, 0, 2, 6, 0, 2]<br/>class = NUC>, fillcolor="#edd7fa"] ;
441 -> 442 ;
443 [label=<gini = 0.0<br/>samples = 3<br/>value = [0, 0, 0, 0, 0, 0, 0, 3, 0, 0]<br/>class = NUC>, fillcolor="#a339e5"] ;
442 -> 443 ;
444 [label=<vac &le; -0.431<br/>gini = 0.727<br/>samples = 11<br/>value = [4, 0, 0, 0, 0, 0, 2, 3, 0, 2]<br/>class = CYT>, fillcolor="#fcefe6"] ;
442 -> 444 ;
445 [label=<gvh &le; 0.862<br/>gini = 0.375<br/>samples = 4<br/>value = [3, 0, 0, 0, 0, 0, 0, 1, 0, 0]<br/>class = CYT>, fillcolor="#eeab7b"] ;
444 -> 445 ;
446 [label=<gini = 0.0<br/>samples = 1<br/>value = [0, 0, 0, 0, 0, 0, 0, 1, 0, 0]<br/>class = NUC>, fillcolor="#a339e5"] ;
445 -> 446 ;
447 [label=<gini = 0.0<br/>samples = 3<br/>value = [3, 0, 0, 0, 0, 0, 0, 0, 0, 0]<br/>class = CYT>, fillcolor="#e58139"] ;
445 -> 447 ;
448 [label=<mit &le; -0.736<br/>gini = 0.735<br/>samples = 7<br/>value = [1, 0, 0, 0, 0, 0, 2, 2, 0, 2]<br/>class = MIT>, fillcolor="#ffffff"] ;
444 -> 448 ;
449 [label=<gvh &le; 0.943<br/>gini = 0.64<br/>samples = 5<br/>value = [1, 0, 0, 0, 0, 0, 0, 2, 0, 2]<br/>class = NUC>, fillcolor="#ffffff"] ;
448 -> 449 ;
450 [label=<mcg &le; -0.186<br/>gini = 0.444<br/>samples = 3<br/>value = [1, 0, 0, 0, 0, 0, 0, 0, 0, 2]<br/>class = VAC>, fillcolor="#f29cac"] ;
449 -> 450 ;
451 [label=<gini = 0.0<br/>samples = 1<br/>value = [1, 0, 0, 0, 0, 0, 0, 0, 0, 0]<br/>class = CYT>, fillcolor="#e58139"] ;
450 -> 451 ;
452 [label=<gini = 0.0<br/>samples = 2<br/>value = [0, 0, 0, 0, 0, 0, 0, 0, 0, 2]<br/>class = VAC>, fillcolor="#e53958"] ;
450 -> 452 ;
453 [label=<gini = 0.0<br/>samples = 2<br/>value = [0, 0, 0, 0, 0, 0, 0, 2, 0, 0]<br/>class = NUC>, fillcolor="#a339e5"] ;
449 -> 453 ;
454 [label=<gini = 0.0<br/>samples = 2<br/>value = [0, 0, 0, 0, 0, 0, 2, 0, 0, 0]<br/>class = MIT>, fillcolor="#3c39e5"] ;
448 -> 454 ;
455 [label=<vac &le; 0.172<br/>gini = 0.444<br/>samples = 9<br/>value = [3, 0, 0, 0, 0, 0, 6, 0, 0, 0]<br/>class = MIT>, fillcolor="#9e9cf2"] ;
441 -> 455 ;
456 [label=<alm &le; 0.535<br/>gini = 0.245<br/>samples = 7<br/>value = [1, 0, 0, 0, 0, 0, 6, 0, 0, 0]<br/>class = MIT>, fillcolor="#5d5ae9"] ;
455 -> 456 ;
457 [label=<mit &le; -0.295<br/>gini = 0.5<br/>samples = 2<br/>value = [1, 0, 0, 0, 0, 0, 1, 0, 0, 0]<br/>class = CYT>, fillcolor="#ffffff"] ;
456 -> 457 ;
458 [label=<gini = 0.0<br/>samples = 1<br/>value = [0, 0, 0, 0, 0, 0, 1, 0, 0, 0]<br/>class = MIT>, fillcolor="#3c39e5"] ;
457 -> 458 ;
459 [label=<gini = 0.0<br/>samples = 1<br/>value = [1, 0, 0, 0, 0, 0, 0, 0, 0, 0]<br/>class = CYT>, fillcolor="#e58139"] ;
457 -> 459 ;
460 [label=<gini = 0.0<br/>samples = 5<br/>value = [0, 0, 0, 0, 0, 0, 5, 0, 0, 0]<br/>class = MIT>, fillcolor="#3c39e5"] ;
456 -> 460 ;
461 [label=<gini = 0.0<br/>samples = 2<br/>value = [2, 0, 0, 0, 0, 0, 0, 0, 0, 0]<br/>class = CYT>, fillcolor="#e58139"] ;
455 -> 461 ;
462 [label=<alm &le; 1.0<br/>gini = 0.587<br/>samples = 171<br/>value = [83, 0, 0, 0, 1, 1, 11, 71, 0, 4]<br/>class = CYT>, fillcolor="#fcf0e7"] ;
198 -> 462 ;
463 [label=<mcg &le; -0.844<br/>gini = 0.578<br/>samples = 152<br/>value = [80, 0, 0, 0, 1, 1, 9, 57, 0, 4]<br/>class = CYT>, fillcolor="#f9e0cf"] ;
462 -> 463 ;
464 [label=<mit &le; -0.258<br/>gini = 0.611<br/>samples = 29<br/>value = [8, 0, 0, 0, 1, 1, 2, 16, 0, 1]<br/>class = NUC>, fillcolor="#dcb4f5"] ;
463 -> 464 ;
465 [label=<alm &le; -0.222<br/>gini = 0.694<br/>samples = 21<br/>value = [8, 0, 0, 0, 1, 1, 2, 8, 0, 1]<br/>class = CYT>, fillcolor="#ffffff"] ;
464 -> 465 ;
466 [label=<gvh &le; -0.438<br/>gini = 0.694<br/>samples = 7<br/>value = [0, 0, 0, 0, 1, 1, 2, 3, 0, 0]<br/>class = NUC>, fillcolor="#edd7fa"] ;
465 -> 466 ;
467 [label=<gvh &le; -0.926<br/>gini = 0.5<br/>samples = 2<br/>value = [0, 0, 0, 0, 1, 1, 0, 0, 0, 0]<br/>class = ME2>, fillcolor="#ffffff"] ;
466 -> 467 ;
468 [label=<gini = 0.0<br/>samples = 1<br/>value = [0, 0, 0, 0, 0, 1, 0, 0, 0, 0]<br/>class = ME3>, fillcolor="#399de5"] ;
467 -> 468 ;
469 [label=<gini = 0.0<br/>samples = 1<br/>value = [0, 0, 0, 0, 1, 0, 0, 0, 0, 0]<br/>class = ME2>, fillcolor="#39e5c5"] ;
467 -> 469 ;
470 [label=<mit &le; -0.662<br/>gini = 0.48<br/>samples = 5<br/>value = [0, 0, 0, 0, 0, 0, 2, 3, 0, 0]<br/>class = NUC>, fillcolor="#e0bdf6"] ;
466 -> 470 ;
471 [label=<gini = 0.0<br/>samples = 2<br/>value = [0, 0, 0, 0, 0, 0, 0, 2, 0, 0]<br/>class = NUC>, fillcolor="#a339e5"] ;
470 -> 471 ;
472 [label=<nuc &le; 0.125<br/>gini = 0.444<br/>samples = 3<br/>value = [0, 0, 0, 0, 0, 0, 2, 1, 0, 0]<br/>class = MIT>, fillcolor="#9e9cf2"] ;
470 -> 472 ;
473 [label=<gini = 0.0<br/>samples = 2<br/>value = [0, 0, 0, 0, 0, 0, 2, 0, 0, 0]<br/>class = MIT>, fillcolor="#3c39e5"] ;
472 -> 473 ;
474 [label=<gini = 0.0<br/>samples = 1<br/>value = [0, 0, 0, 0, 0, 0, 0, 1, 0, 0]<br/>class = NUC>, fillcolor="#a339e5"] ;
472 -> 474 ;
475 [label=<nuc &le; -0.017<br/>gini = 0.541<br/>samples = 14<br/>value = [8, 0, 0, 0, 0, 0, 0, 5, 0, 1]<br/>class = CYT>, fillcolor="#f6d5bd"] ;
465 -> 475 ;
476 [label=<gvh &le; -0.926<br/>gini = 0.278<br/>samples = 6<br/>value = [5, 0, 0, 0, 0, 0, 0, 0, 0, 1]<br/>class = CYT>, fillcolor="#ea9a61"] ;
475 -> 476 ;
477 [label=<gini = 0.0<br/>samples = 1<br/>value = [0, 0, 0, 0, 0, 0, 0, 0, 0, 1]<br/>class = VAC>, fillcolor="#e53958"] ;
476 -> 477 ;
478 [label=<gini = 0.0<br/>samples = 5<br/>value = [5, 0, 0, 0, 0, 0, 0, 0, 0, 0]<br/>class = CYT>, fillcolor="#e58139"] ;
476 -> 478 ;
479 [label=<alm &le; 0.128<br/>gini = 0.469<br/>samples = 8<br/>value = [3, 0, 0, 0, 0, 0, 0, 5, 0, 0]<br/>class = NUC>, fillcolor="#dab0f5"] ;
475 -> 479 ;
480 [label=<gini = 0.0<br/>samples = 2<br/>value = [2, 0, 0, 0, 0, 0, 0, 0, 0, 0]<br/>class = CYT>, fillcolor="#e58139"] ;
479 -> 480 ;
481 [label=<gvh &le; -0.926<br/>gini = 0.278<br/>samples = 6<br/>value = [1, 0, 0, 0, 0, 0, 0, 5, 0, 0]<br/>class = NUC>, fillcolor="#b561ea"] ;
479 -> 481 ;
482 [label=<gini = 0.0<br/>samples = 1<br/>value = [1, 0, 0, 0, 0, 0, 0, 0, 0, 0]<br/>class = CYT>, fillcolor="#e58139"] ;
481 -> 482 ;
483 [label=<gini = 0.0<br/>samples = 5<br/>value = [0, 0, 0, 0, 0, 0, 0, 5, 0, 0]<br/>class = NUC>, fillcolor="#a339e5"] ;
481 -> 483 ;
484 [label=<gini = 0.0<br/>samples = 8<br/>value = [0, 0, 0, 0, 0, 0, 0, 8, 0, 0]<br/>class = NUC>, fillcolor="#a339e5"] ;
464 -> 484 ;
485 [label=<vac &le; -0.603<br/>gini = 0.542<br/>samples = 123<br/>value = [72, 0, 0, 0, 0, 0, 7, 41, 0, 3]<br/>class = CYT>, fillcolor="#f5cfb4"] ;
463 -> 485 ;
486 [label=<gvh &le; 1.106<br/>gini = 0.556<br/>samples = 23<br/>value = [8, 0, 0, 0, 0, 0, 1, 13, 0, 1]<br/>class = NUC>, fillcolor="#e0bdf6"] ;
485 -> 486 ;
487 [label=<alm &le; 0.767<br/>gini = 0.51<br/>samples = 20<br/>value = [5, 0, 0, 0, 0, 0, 1, 13, 0, 1]<br/>class = NUC>, fillcolor="#ce95f1"] ;
486 -> 487 ;
488 [label=<mcg &le; 1.021<br/>gini = 0.414<br/>samples = 16<br/>value = [2, 0, 0, 0, 0, 0, 1, 12, 0, 1]<br/>class = NUC>, fillcolor="#bd72ec"] ;
487 -> 488 ;
489 [label=<vac &le; -1.722<br/>gini = 0.338<br/>samples = 15<br/>value = [2, 0, 0, 0, 0, 0, 0, 12, 0, 1]<br/>class = NUC>, fillcolor="#b867eb"] ;
488 -> 489 ;
490 [label=<nuc &le; -0.112<br/>gini = 0.5<br/>samples = 2<br/>value = [0, 0, 0, 0, 0, 0, 0, 1, 0, 1]<br/>class = NUC>, fillcolor="#ffffff"] ;
489 -> 490 ;
491 [label=<gini = 0.0<br/>samples = 1<br/>value = [0, 0, 0, 0, 0, 0, 0, 1, 0, 0]<br/>class = NUC>, fillcolor="#a339e5"] ;
490 -> 491 ;
492 [label=<gini = 0.0<br/>samples = 1<br/>value = [0, 0, 0, 0, 0, 0, 0, 0, 0, 1]<br/>class = VAC>, fillcolor="#e53958"] ;
490 -> 492 ;
493 [label=<gvh &le; 0.578<br/>gini = 0.26<br/>samples = 13<br/>value = [2, 0, 0, 0, 0, 0, 0, 11, 0, 0]<br/>class = NUC>, fillcolor="#b45dea"] ;
489 -> 493 ;
494 [label=<mcg &le; 0.619<br/>gini = 0.153<br/>samples = 12<br/>value = [1, 0, 0, 0, 0, 0, 0, 11, 0, 0]<br/>class = NUC>, fillcolor="#ab4be7"] ;
493 -> 494 ;
495 [label=<gini = 0.0<br/>samples = 9<br/>value = [0, 0, 0, 0, 0, 0, 0, 9, 0, 0]<br/>class = NUC>, fillcolor="#a339e5"] ;
494 -> 495 ;
496 [label=<nuc &le; -0.206<br/>gini = 0.444<br/>samples = 3<br/>value = [1, 0, 0, 0, 0, 0, 0, 2, 0, 0]<br/>class = NUC>, fillcolor="#d19cf2"] ;
494 -> 496 ;
497 [label=<gini = 0.0<br/>samples = 1<br/>value = [1, 0, 0, 0, 0, 0, 0, 0, 0, 0]<br/>class = CYT>, fillcolor="#e58139"] ;
496 -> 497 ;
498 [label=<gini = 0.0<br/>samples = 2<br/>value = [0, 0, 0, 0, 0, 0, 0, 2, 0, 0]<br/>class = NUC>, fillcolor="#a339e5"] ;
496 -> 498 ;
499 [label=<gini = 0.0<br/>samples = 1<br/>value = [1, 0, 0, 0, 0, 0, 0, 0, 0, 0]<br/>class = CYT>, fillcolor="#e58139"] ;
493 -> 499 ;
500 [label=<gini = 0.0<br/>samples = 1<br/>value = [0, 0, 0, 0, 0, 0, 1, 0, 0, 0]<br/>class = MIT>, fillcolor="#3c39e5"] ;
488 -> 500 ;
501 [label=<gvh &le; 0.293<br/>gini = 0.375<br/>samples = 4<br/>value = [3, 0, 0, 0, 0, 0, 0, 1, 0, 0]<br/>class = CYT>, fillcolor="#eeab7b"] ;
487 -> 501 ;
502 [label=<gini = 0.0<br/>samples = 3<br/>value = [3, 0, 0, 0, 0, 0, 0, 0, 0, 0]<br/>class = CYT>, fillcolor="#e58139"] ;
501 -> 502 ;
503 [label=<gini = 0.0<br/>samples = 1<br/>value = [0, 0, 0, 0, 0, 0, 0, 1, 0, 0]<br/>class = NUC>, fillcolor="#a339e5"] ;
501 -> 503 ;
504 [label=<gini = 0.0<br/>samples = 3<br/>value = [3, 0, 0, 0, 0, 0, 0, 0, 0, 0]<br/>class = CYT>, fillcolor="#e58139"] ;
486 -> 504 ;
505 [label=<mit &le; 0.699<br/>gini = 0.508<br/>samples = 100<br/>value = [64, 0, 0, 0, 0, 0, 6, 28, 0, 2]<br/>class = CYT>, fillcolor="#f2c09c"] ;
485 -> 505 ;
506 [label=<mcg &le; 0.985<br/>gini = 0.485<br/>samples = 97<br/>value = [64, 0, 0, 0, 0, 0, 4, 27, 0, 2]<br/>class = CYT>, fillcolor="#f1bc96"] ;
505 -> 506 ;
507 [label=<alm &le; 0.302<br/>gini = 0.464<br/>samples = 94<br/>value = [64, 0, 0, 0, 0, 0, 3, 25, 0, 2]<br/>class = CYT>, fillcolor="#f0b88f"] ;
506 -> 507 ;
508 [label=<mit &le; 0.478<br/>gini = 0.392<br/>samples = 57<br/>value = [43, 0, 0, 0, 0, 0, 1, 11, 0, 2]<br/>class = CYT>, fillcolor="#eda775"] ;
507 -> 508 ;
509 [label=<nuc &le; -0.112<br/>gini = 0.36<br/>samples = 55<br/>value = [43, 0, 0, 0, 0, 0, 1, 9, 0, 2]<br/>class = CYT>, fillcolor="#eca26d"] ;
508 -> 509 ;
510 [label=<vac &le; -0.086<br/>gini = 0.512<br/>samples = 22<br/>value = [14, 0, 0, 0, 0, 0, 0, 6, 0, 2]<br/>class = CYT>, fillcolor="#f2c09c"] ;
509 -> 510 ;
511 [label=<gvh &le; -0.641<br/>gini = 0.375<br/>samples = 4<br/>value = [1, 0, 0, 0, 0, 0, 0, 3, 0, 0]<br/>class = NUC>, fillcolor="#c27bee"] ;
510 -> 511 ;
512 [label=<gini = 0.0<br/>samples = 1<br/>value = [1, 0, 0, 0, 0, 0, 0, 0, 0, 0]<br/>class = CYT>, fillcolor="#e58139"] ;
511 -> 512 ;
513 [label=<gini = 0.0<br/>samples = 3<br/>value = [0, 0, 0, 0, 0, 0, 0, 3, 0, 0]<br/>class = NUC>, fillcolor="#a339e5"] ;
511 -> 513 ;
514 [label=<mcg &le; -0.039<br/>gini = 0.438<br/>samples = 18<br/>value = [13, 0, 0, 0, 0, 0, 0, 3, 0, 2]<br/>class = CYT>, fillcolor="#eeab7b"] ;
510 -> 514 ;
515 [label=<mcg &le; -0.295<br/>gini = 0.49<br/>samples = 7<br/>value = [4, 0, 0, 0, 0, 0, 0, 3, 0, 0]<br/>class = CYT>, fillcolor="#f8e0ce"] ;
514 -> 515 ;
516 [label=<gini = 0.0<br/>samples = 3<br/>value = [3, 0, 0, 0, 0, 0, 0, 0, 0, 0]<br/>class = CYT>, fillcolor="#e58139"] ;
515 -> 516 ;
517 [label=<vac &le; 0.688<br/>gini = 0.375<br/>samples = 4<br/>value = [1, 0, 0, 0, 0, 0, 0, 3, 0, 0]<br/>class = NUC>, fillcolor="#c27bee"] ;
515 -> 517 ;
518 [label=<gini = 0.0<br/>samples = 3<br/>value = [0, 0, 0, 0, 0, 0, 0, 3, 0, 0]<br/>class = NUC>, fillcolor="#a339e5"] ;
517 -> 518 ;
519 [label=<gini = 0.0<br/>samples = 1<br/>value = [1, 0, 0, 0, 0, 0, 0, 0, 0, 0]<br/>class = CYT>, fillcolor="#e58139"] ;
517 -> 519 ;
520 [label=<mcg &le; 0.473<br/>gini = 0.298<br/>samples = 11<br/>value = [9, 0, 0, 0, 0, 0, 0, 0, 0, 2]<br/>class = CYT>, fillcolor="#eb9d65"] ;
514 -> 520 ;
521 [label=<gini = 0.0<br/>samples = 6<br/>value = [6, 0, 0, 0, 0, 0, 0, 0, 0, 0]<br/>class = CYT>, fillcolor="#e58139"] ;
520 -> 521 ;
522 [label=<nuc &le; -0.206<br/>gini = 0.48<br/>samples = 5<br/>value = [3, 0, 0, 0, 0, 0, 0, 0, 0, 2]<br/>class = CYT>, fillcolor="#f6d5bd"] ;
520 -> 522 ;
523 [label=<gini = 0.0<br/>samples = 3<br/>value = [3, 0, 0, 0, 0, 0, 0, 0, 0, 0]<br/>class = CYT>, fillcolor="#e58139"] ;
522 -> 523 ;
524 [label=<gini = 0.0<br/>samples = 2<br/>value = [0, 0, 0, 0, 0, 0, 0, 0, 0, 2]<br/>class = VAC>, fillcolor="#e53958"] ;
522 -> 524 ;
525 [label=<gvh &le; -0.926<br/>gini = 0.219<br/>samples = 33<br/>value = [29, 0, 0, 0, 0, 0, 1, 3, 0, 0]<br/>class = CYT>, fillcolor="#e89253"] ;
509 -> 525 ;
526 [label=<gini = 0.0<br/>samples = 1<br/>value = [0, 0, 0, 0, 0, 0, 1, 0, 0, 0]<br/>class = MIT>, fillcolor="#3c39e5"] ;
525 -> 526 ;
527 [label=<gvh &le; 0.171<br/>gini = 0.17<br/>samples = 32<br/>value = [29, 0, 0, 0, 0, 0, 0, 3, 0, 0]<br/>class = CYT>, fillcolor="#e88e4d"] ;
525 -> 527 ;
528 [label=<gini = 0.0<br/>samples = 22<br/>value = [22, 0, 0, 0, 0, 0, 0, 0, 0, 0]<br/>class = CYT>, fillcolor="#e58139"] ;
527 -> 528 ;
529 [label=<gvh &le; 0.334<br/>gini = 0.42<br/>samples = 10<br/>value = [7, 0, 0, 0, 0, 0, 0, 3, 0, 0]<br/>class = CYT>, fillcolor="#f0b78e"] ;
527 -> 529 ;
530 [label=<gini = 0.0<br/>samples = 2<br/>value = [0, 0, 0, 0, 0, 0, 0, 2, 0, 0]<br/>class = NUC>, fillcolor="#a339e5"] ;
529 -> 530 ;
531 [label=<vac &le; -0.259<br/>gini = 0.219<br/>samples = 8<br/>value = [7, 0, 0, 0, 0, 0, 0, 1, 0, 0]<br/>class = CYT>, fillcolor="#e99355"] ;
529 -> 531 ;
532 [label=<gini = 0.0<br/>samples = 1<br/>value = [0, 0, 0, 0, 0, 0, 0, 1, 0, 0]<br/>class = NUC>, fillcolor="#a339e5"] ;
531 -> 532 ;
533 [label=<gini = 0.0<br/>samples = 7<br/>value = [7, 0, 0, 0, 0, 0, 0, 0, 0, 0]<br/>class = CYT>, fillcolor="#e58139"] ;
531 -> 533 ;
534 [label=<gini = 0.0<br/>samples = 2<br/>value = [0, 0, 0, 0, 0, 0, 0, 2, 0, 0]<br/>class = NUC>, fillcolor="#a339e5"] ;
508 -> 534 ;
535 [label=<alm &le; 0.535<br/>gini = 0.532<br/>samples = 37<br/>value = [21, 0, 0, 0, 0, 0, 2, 14, 0, 0]<br/>class = CYT>, fillcolor="#f7d9c3"] ;
507 -> 535 ;
536 [label=<mit &le; -0.184<br/>gini = 0.586<br/>samples = 18<br/>value = [7, 0, 0, 0, 0, 0, 2, 9, 0, 0]<br/>class = NUC>, fillcolor="#eedbfa"] ;
535 -> 536 ;
537 [label=<nuc &le; 0.22<br/>gini = 0.492<br/>samples = 16<br/>value = [7, 0, 0, 0, 0, 0, 0, 9, 0, 0]<br/>class = NUC>, fillcolor="#ebd3f9"] ;
536 -> 537 ;
538 [label=<mcg &le; -0.478<br/>gini = 0.459<br/>samples = 14<br/>value = [5, 0, 0, 0, 0, 0, 0, 9, 0, 0]<br/>class = NUC>, fillcolor="#d6a7f3"] ;
537 -> 538 ;
539 [label=<gini = 0.0<br/>samples = 4<br/>value = [0, 0, 0, 0, 0, 0, 0, 4, 0, 0]<br/>class = NUC>, fillcolor="#a339e5"] ;
538 -> 539 ;
540 [label=<mcg &le; -0.259<br/>gini = 0.5<br/>samples = 10<br/>value = [5, 0, 0, 0, 0, 0, 0, 5, 0, 0]<br/>class = CYT>, fillcolor="#ffffff"] ;
538 -> 540 ;
541 [label=<gini = 0.0<br/>samples = 4<br/>value = [4, 0, 0, 0, 0, 0, 0, 0, 0, 0]<br/>class = CYT>, fillcolor="#e58139"] ;
540 -> 541 ;
542 [label=<mcg &le; 0.619<br/>gini = 0.278<br/>samples = 6<br/>value = [1, 0, 0, 0, 0, 0, 0, 5, 0, 0]<br/>class = NUC>, fillcolor="#b561ea"] ;
540 -> 542 ;
543 [label=<gini = 0.0<br/>samples = 5<br/>value = [0, 0, 0, 0, 0, 0, 0, 5, 0, 0]<br/>class = NUC>, fillcolor="#a339e5"] ;
542 -> 543 ;
544 [label=<gini = 0.0<br/>samples = 1<br/>value = [1, 0, 0, 0, 0, 0, 0, 0, 0, 0]<br/>class = CYT>, fillcolor="#e58139"] ;
542 -> 544 ;
545 [label=<gini = 0.0<br/>samples = 2<br/>value = [2, 0, 0, 0, 0, 0, 0, 0, 0, 0]<br/>class = CYT>, fillcolor="#e58139"] ;
537 -> 545 ;
546 [label=<gini = 0.0<br/>samples = 2<br/>value = [0, 0, 0, 0, 0, 0, 2, 0, 0, 0]<br/>class = MIT>, fillcolor="#3c39e5"] ;
536 -> 546 ;
547 [label=<vac &le; 0.602<br/>gini = 0.388<br/>samples = 19<br/>value = [14, 0, 0, 0, 0, 0, 0, 5, 0, 0]<br/>class = CYT>, fillcolor="#eeae80"] ;
535 -> 547 ;
548 [label=<gvh &le; -0.479<br/>gini = 0.473<br/>samples = 13<br/>value = [8, 0, 0, 0, 0, 0, 0, 5, 0, 0]<br/>class = CYT>, fillcolor="#f5d0b5"] ;
547 -> 548 ;
549 [label=<gini = 0.0<br/>samples = 3<br/>value = [3, 0, 0, 0, 0, 0, 0, 0, 0, 0]<br/>class = CYT>, fillcolor="#e58139"] ;
548 -> 549 ;
550 [label=<mit &le; -0.405<br/>gini = 0.5<br/>samples = 10<br/>value = [5, 0, 0, 0, 0, 0, 0, 5, 0, 0]<br/>class = CYT>, fillcolor="#ffffff"] ;
548 -> 550 ;
551 [label=<mcg &le; -0.259<br/>gini = 0.408<br/>samples = 7<br/>value = [5, 0, 0, 0, 0, 0, 0, 2, 0, 0]<br/>class = CYT>, fillcolor="#efb388"] ;
550 -> 551 ;
552 [label=<gini = 0.0<br/>samples = 2<br/>value = [0, 0, 0, 0, 0, 0, 0, 2, 0, 0]<br/>class = NUC>, fillcolor="#a339e5"] ;
551 -> 552 ;
553 [label=<gini = 0.0<br/>samples = 5<br/>value = [5, 0, 0, 0, 0, 0, 0, 0, 0, 0]<br/>class = CYT>, fillcolor="#e58139"] ;
551 -> 553 ;
554 [label=<gini = 0.0<br/>samples = 3<br/>value = [0, 0, 0, 0, 0, 0, 0, 3, 0, 0]<br/>class = NUC>, fillcolor="#a339e5"] ;
550 -> 554 ;
555 [label=<gini = 0.0<br/>samples = 6<br/>value = [6, 0, 0, 0, 0, 0, 0, 0, 0, 0]<br/>class = CYT>, fillcolor="#e58139"] ;
547 -> 555 ;
556 [label=<alm &le; -0.454<br/>gini = 0.444<br/>samples = 3<br/>value = [0, 0, 0, 0, 0, 0, 1, 2, 0, 0]<br/>class = NUC>, fillcolor="#d19cf2"] ;
506 -> 556 ;
557 [label=<gini = 0.0<br/>samples = 1<br/>value = [0, 0, 0, 0, 0, 0, 1, 0, 0, 0]<br/>class = MIT>, fillcolor="#3c39e5"] ;
556 -> 557 ;
558 [label=<gini = 0.0<br/>samples = 2<br/>value = [0, 0, 0, 0, 0, 0, 0, 2, 0, 0]<br/>class = NUC>, fillcolor="#a339e5"] ;
556 -> 558 ;
559 [label=<nuc &le; 0.031<br/>gini = 0.444<br/>samples = 3<br/>value = [0, 0, 0, 0, 0, 0, 2, 1, 0, 0]<br/>class = MIT>, fillcolor="#9e9cf2"] ;
505 -> 559 ;
560 [label=<gini = 0.0<br/>samples = 2<br/>value = [0, 0, 0, 0, 0, 0, 2, 0, 0, 0]<br/>class = MIT>, fillcolor="#3c39e5"] ;
559 -> 560 ;
561 [label=<gini = 0.0<br/>samples = 1<br/>value = [0, 0, 0, 0, 0, 0, 0, 1, 0, 0]<br/>class = NUC>, fillcolor="#a339e5"] ;
559 -> 561 ;
562 [label=<alm &le; 2.164<br/>gini = 0.421<br/>samples = 19<br/>value = [3, 0, 0, 0, 0, 0, 2, 14, 0, 0]<br/>class = NUC>, fillcolor="#c077ed"] ;
462 -> 562 ;
563 [label=<mit &le; 0.331<br/>gini = 0.304<br/>samples = 17<br/>value = [1, 0, 0, 0, 0, 0, 2, 14, 0, 0]<br/>class = NUC>, fillcolor="#b561ea"] ;
562 -> 563 ;
564 [label=<mcg &le; 0.619<br/>gini = 0.133<br/>samples = 14<br/>value = [1, 0, 0, 0, 0, 0, 0, 13, 0, 0]<br/>class = NUC>, fillcolor="#aa48e7"] ;
563 -> 564 ;
565 [label=<gini = 0.0<br/>samples = 13<br/>value = [0, 0, 0, 0, 0, 0, 0, 13, 0, 0]<br/>class = NUC>, fillcolor="#a339e5"] ;
564 -> 565 ;
566 [label=<gini = 0.0<br/>samples = 1<br/>value = [1, 0, 0, 0, 0, 0, 0, 0, 0, 0]<br/>class = CYT>, fillcolor="#e58139"] ;
564 -> 566 ;
567 [label=<mcg &le; -0.917<br/>gini = 0.444<br/>samples = 3<br/>value = [0, 0, 0, 0, 0, 0, 2, 1, 0, 0]<br/>class = MIT>, fillcolor="#9e9cf2"] ;
563 -> 567 ;
568 [label=<gini = 0.0<br/>samples = 1<br/>value = [0, 0, 0, 0, 0, 0, 0, 1, 0, 0]<br/>class = NUC>, fillcolor="#a339e5"] ;
567 -> 568 ;
569 [label=<gini = 0.0<br/>samples = 2<br/>value = [0, 0, 0, 0, 0, 0, 2, 0, 0, 0]<br/>class = MIT>, fillcolor="#3c39e5"] ;
567 -> 569 ;
570 [label=<gini = 0.0<br/>samples = 2<br/>value = [2, 0, 0, 0, 0, 0, 0, 0, 0, 0]<br/>class = CYT>, fillcolor="#e58139"] ;
562 -> 570 ;
571 [label=<mit &le; 0.22<br/>gini = 0.278<br/>samples = 6<br/>value = [0, 0, 0, 0, 0, 0, 1, 0, 5, 0]<br/>class = POX>, fillcolor="#ea61cd"] ;
197 -> 571 ;
572 [label=<gini = 0.0<br/>samples = 5<br/>value = [0, 0, 0, 0, 0, 0, 0, 0, 5, 0]<br/>class = POX>, fillcolor="#e539c0"] ;
571 -> 572 ;
573 [label=<gini = 0.0<br/>samples = 1<br/>value = [0, 0, 0, 0, 0, 0, 1, 0, 0, 0]<br/>class = MIT>, fillcolor="#3c39e5"] ;
571 -> 573 ;
574 [label=<gvh &le; 1.675<br/>gini = 0.674<br/>samples = 36<br/>value = [3, 1, 19, 6, 3, 0, 0, 1, 1, 2]<br/>class = EXC>, fillcolor="#c6f4a9"] ;
156 -> 574 ;
575 [label=<mit &le; -0.626<br/>gini = 0.816<br/>samples = 14<br/>value = [3, 0, 2, 4, 2, 0, 0, 1, 1, 1]<br/>class = ME1>, fillcolor="#edfdf0"] ;
574 -> 575 ;
576 [label=<gini = 0.0<br/>samples = 3<br/>value = [3, 0, 0, 0, 0, 0, 0, 0, 0, 0]<br/>class = CYT>, fillcolor="#e58139"] ;
575 -> 576 ;
577 [label=<vac &le; 0.344<br/>gini = 0.777<br/>samples = 11<br/>value = [0, 0, 2, 4, 2, 0, 0, 1, 1, 1]<br/>class = ME1>, fillcolor="#d3f9db"] ;
575 -> 577 ;
578 [label=<alm &le; -0.222<br/>gini = 0.776<br/>samples = 7<br/>value = [0, 0, 2, 1, 2, 0, 0, 1, 1, 0]<br/>class = EXC>, fillcolor="#ffffff"] ;
577 -> 578 ;
579 [label=<mcg &le; 2.265<br/>gini = 0.444<br/>samples = 3<br/>value = [0, 0, 2, 0, 0, 0, 0, 0, 1, 0]<br/>class = EXC>, fillcolor="#bdf29c"] ;
578 -> 579 ;
580 [label=<gini = 0.0<br/>samples = 2<br/>value = [0, 0, 2, 0, 0, 0, 0, 0, 0, 0]<br/>class = EXC>, fillcolor="#7be539"] ;
579 -> 580 ;
581 [label=<gini = 0.0<br/>samples = 1<br/>value = [0, 0, 0, 0, 0, 0, 0, 0, 1, 0]<br/>class = POX>, fillcolor="#e539c0"] ;
579 -> 581 ;
582 [label=<mcg &le; 2.485<br/>gini = 0.625<br/>samples = 4<br/>value = [0, 0, 0, 1, 2, 0, 0, 1, 0, 0]<br/>class = ME2>, fillcolor="#bdf6ec"] ;
578 -> 582 ;
583 [label=<gini = 0.0<br/>samples = 2<br/>value = [0, 0, 0, 0, 2, 0, 0, 0, 0, 0]<br/>class = ME2>, fillcolor="#39e5c5"] ;
582 -> 583 ;
584 [label=<mcg &le; 2.741<br/>gini = 0.5<br/>samples = 2<br/>value = [0, 0, 0, 1, 0, 0, 0, 1, 0, 0]<br/>class = ME1>, fillcolor="#ffffff"] ;
582 -> 584 ;
585 [label=<gini = 0.0<br/>samples = 1<br/>value = [0, 0, 0, 1, 0, 0, 0, 0, 0, 0]<br/>class = ME1>, fillcolor="#39e55e"] ;
584 -> 585 ;
586 [label=<gini = 0.0<br/>samples = 1<br/>value = [0, 0, 0, 0, 0, 0, 0, 1, 0, 0]<br/>class = NUC>, fillcolor="#a339e5"] ;
584 -> 586 ;
587 [label=<mcg &le; 1.863<br/>gini = 0.375<br/>samples = 4<br/>value = [0, 0, 0, 3, 0, 0, 0, 0, 0, 1]<br/>class = ME1>, fillcolor="#7bee94"] ;
577 -> 587 ;
588 [label=<gini = 0.0<br/>samples = 1<br/>value = [0, 0, 0, 0, 0, 0, 0, 0, 0, 1]<br/>class = VAC>, fillcolor="#e53958"] ;
587 -> 588 ;
589 [label=<gini = 0.0<br/>samples = 3<br/>value = [0, 0, 0, 3, 0, 0, 0, 0, 0, 0]<br/>class = ME1>, fillcolor="#39e55e"] ;
587 -> 589 ;
590 [label=<erl &le; 4.699<br/>gini = 0.388<br/>samples = 22<br/>value = [0, 1, 17, 2, 1, 0, 0, 0, 0, 1]<br/>class = EXC>, fillcolor="#9cec6a"] ;
574 -> 590 ;
591 [label=<vac &le; 1.118<br/>gini = 0.331<br/>samples = 21<br/>value = [0, 0, 17, 2, 1, 0, 0, 0, 0, 1]<br/>class = EXC>, fillcolor="#97ea63"] ;
590 -> 591 ;
592 [label=<alm &le; -0.629<br/>gini = 0.265<br/>samples = 20<br/>value = [0, 0, 17, 2, 1, 0, 0, 0, 0, 0]<br/>class = EXC>, fillcolor="#91e95a"] ;
591 -> 592 ;
593 [label=<gini = 0.0<br/>samples = 1<br/>value = [0, 0, 0, 1, 0, 0, 0, 0, 0, 0]<br/>class = ME1>, fillcolor="#39e55e"] ;
592 -> 593 ;
594 [label=<mit &le; -0.405<br/>gini = 0.194<br/>samples = 19<br/>value = [0, 0, 17, 1, 1, 0, 0, 0, 0, 0]<br/>class = EXC>, fillcolor="#8ae84f"] ;
592 -> 594 ;
595 [label=<gini = 0.0<br/>samples = 1<br/>value = [0, 0, 0, 1, 0, 0, 0, 0, 0, 0]<br/>class = ME1>, fillcolor="#39e55e"] ;
594 -> 595 ;
596 [label=<nuc &le; 0.078<br/>gini = 0.105<br/>samples = 18<br/>value = [0, 0, 17, 0, 1, 0, 0, 0, 0, 0]<br/>class = EXC>, fillcolor="#83e745"] ;
594 -> 596 ;
597 [label=<gini = 0.0<br/>samples = 16<br/>value = [0, 0, 16, 0, 0, 0, 0, 0, 0, 0]<br/>class = EXC>, fillcolor="#7be539"] ;
596 -> 597 ;
598 [label=<vac &le; 0.086<br/>gini = 0.5<br/>samples = 2<br/>value = [0, 0, 1, 0, 1, 0, 0, 0, 0, 0]<br/>class = EXC>, fillcolor="#ffffff"] ;
596 -> 598 ;
599 [label=<gini = 0.0<br/>samples = 1<br/>value = [0, 0, 1, 0, 0, 0, 0, 0, 0, 0]<br/>class = EXC>, fillcolor="#7be539"] ;
598 -> 599 ;
600 [label=<gini = 0.0<br/>samples = 1<br/>value = [0, 0, 0, 0, 1, 0, 0, 0, 0, 0]<br/>class = ME2>, fillcolor="#39e5c5"] ;
598 -> 600 ;
601 [label=<gini = 0.0<br/>samples = 1<br/>value = [0, 0, 0, 0, 0, 0, 0, 0, 0, 1]<br/>class = VAC>, fillcolor="#e53958"] ;
591 -> 601 ;
602 [label=<gini = 0.0<br/>samples = 1<br/>value = [0, 1, 0, 0, 0, 0, 0, 0, 0, 0]<br/>class = ERL>, fillcolor="#e2e539"] ;
590 -> 602 ;
603 [label=<mcg &le; 1.351<br/>gini = 0.472<br/>samples = 177<br/>value = [43, 1, 0, 0, 2, 5, 2, 121, 1, 2]<br/>class = NUC>, fillcolor="#c98cf0"] ;
155 -> 603 ;
604 [label=<vac &le; 0.086<br/>gini = 0.428<br/>samples = 169<br/>value = [41, 0, 0, 0, 0, 5, 1, 121, 1, 0]<br/>class = NUC>, fillcolor="#c683ef"] ;
603 -> 604 ;
605 [label=<nuc &le; 3.966<br/>gini = 0.279<br/>samples = 68<br/>value = [9, 0, 0, 0, 0, 2, 0, 57, 0, 0]<br/>class = NUC>, fillcolor="#b45eea"] ;
604 -> 605 ;
606 [label=<alm &le; -0.512<br/>gini = 0.242<br/>samples = 66<br/>value = [7, 0, 0, 0, 0, 2, 0, 57, 0, 0]<br/>class = NUC>, fillcolor="#b157e9"] ;
605 -> 606 ;
607 [label=<gvh &le; -0.641<br/>gini = 0.625<br/>samples = 4<br/>value = [1, 0, 0, 0, 0, 2, 0, 1, 0, 0]<br/>class = ME3>, fillcolor="#bddef6"] ;
606 -> 607 ;
608 [label=<alm &le; -0.629<br/>gini = 0.5<br/>samples = 2<br/>value = [1, 0, 0, 0, 0, 0, 0, 1, 0, 0]<br/>class = CYT>, fillcolor="#ffffff"] ;
607 -> 608 ;
609 [label=<gini = 0.0<br/>samples = 1<br/>value = [0, 0, 0, 0, 0, 0, 0, 1, 0, 0]<br/>class = NUC>, fillcolor="#a339e5"] ;
608 -> 609 ;
610 [label=<gini = 0.0<br/>samples = 1<br/>value = [1, 0, 0, 0, 0, 0, 0, 0, 0, 0]<br/>class = CYT>, fillcolor="#e58139"] ;
608 -> 610 ;
611 [label=<gini = 0.0<br/>samples = 2<br/>value = [0, 0, 0, 0, 0, 2, 0, 0, 0, 0]<br/>class = ME3>, fillcolor="#399de5"] ;
607 -> 611 ;
612 [label=<gvh &le; -0.479<br/>gini = 0.175<br/>samples = 62<br/>value = [6, 0, 0, 0, 0, 0, 0, 56, 0, 0]<br/>class = NUC>, fillcolor="#ad4ee8"] ;
606 -> 612 ;
613 [label=<nuc &le; 1.311<br/>gini = 0.302<br/>samples = 27<br/>value = [5, 0, 0, 0, 0, 0, 0, 22, 0, 0]<br/>class = NUC>, fillcolor="#b866eb"] ;
612 -> 613 ;
614 [label=<nuc &le; 1.121<br/>gini = 0.473<br/>samples = 13<br/>value = [5, 0, 0, 0, 0, 0, 0, 8, 0, 0]<br/>class = NUC>, fillcolor="#dcb5f5"] ;
613 -> 614 ;
615 [label=<vac &le; -0.431<br/>gini = 0.32<br/>samples = 10<br/>value = [2, 0, 0, 0, 0, 0, 0, 8, 0, 0]<br/>class = NUC>, fillcolor="#ba6aec"] ;
614 -> 615 ;
616 [label=<gini = 0.0<br/>samples = 7<br/>value = [0, 0, 0, 0, 0, 0, 0, 7, 0, 0]<br/>class = NUC>, fillcolor="#a339e5"] ;
615 -> 616 ;
617 [label=<nuc &le; 0.837<br/>gini = 0.444<br/>samples = 3<br/>value = [2, 0, 0, 0, 0, 0, 0, 1, 0, 0]<br/>class = CYT>, fillcolor="#f2c09c"] ;
615 -> 617 ;
618 [label=<gini = 0.0<br/>samples = 2<br/>value = [2, 0, 0, 0, 0, 0, 0, 0, 0, 0]<br/>class = CYT>, fillcolor="#e58139"] ;
617 -> 618 ;
619 [label=<gini = 0.0<br/>samples = 1<br/>value = [0, 0, 0, 0, 0, 0, 0, 1, 0, 0]<br/>class = NUC>, fillcolor="#a339e5"] ;
617 -> 619 ;
620 [label=<gini = 0.0<br/>samples = 3<br/>value = [3, 0, 0, 0, 0, 0, 0, 0, 0, 0]<br/>class = CYT>, fillcolor="#e58139"] ;
614 -> 620 ;
621 [label=<gini = 0.0<br/>samples = 14<br/>value = [0, 0, 0, 0, 0, 0, 0, 14, 0, 0]<br/>class = NUC>, fillcolor="#a339e5"] ;
613 -> 621 ;
622 [label=<nuc &le; 3.255<br/>gini = 0.056<br/>samples = 35<br/>value = [1, 0, 0, 0, 0, 0, 0, 34, 0, 0]<br/>class = NUC>, fillcolor="#a63fe6"] ;
612 -> 622 ;
623 [label=<gini = 0.0<br/>samples = 31<br/>value = [0, 0, 0, 0, 0, 0, 0, 31, 0, 0]<br/>class = NUC>, fillcolor="#a339e5"] ;
622 -> 623 ;
624 [label=<nuc &le; 3.539<br/>gini = 0.375<br/>samples = 4<br/>value = [1, 0, 0, 0, 0, 0, 0, 3, 0, 0]<br/>class = NUC>, fillcolor="#c27bee"] ;
622 -> 624 ;
625 [label=<gini = 0.0<br/>samples = 1<br/>value = [1, 0, 0, 0, 0, 0, 0, 0, 0, 0]<br/>class = CYT>, fillcolor="#e58139"] ;
624 -> 625 ;
626 [label=<gini = 0.0<br/>samples = 3<br/>value = [0, 0, 0, 0, 0, 0, 0, 3, 0, 0]<br/>class = NUC>, fillcolor="#a339e5"] ;
624 -> 626 ;
627 [label=<gini = 0.0<br/>samples = 2<br/>value = [2, 0, 0, 0, 0, 0, 0, 0, 0, 0]<br/>class = CYT>, fillcolor="#e58139"] ;
605 -> 627 ;
628 [label=<mcg &le; 0.034<br/>gini = 0.497<br/>samples = 101<br/>value = [32, 0, 0, 0, 0, 3, 1, 64, 1, 0]<br/>class = NUC>, fillcolor="#d4a3f3"] ;
604 -> 628 ;
629 [label=<mcg &le; -2.051<br/>gini = 0.433<br/>samples = 69<br/>value = [17, 0, 0, 0, 0, 3, 0, 49, 0, 0]<br/>class = NUC>, fillcolor="#c685ef"] ;
628 -> 629 ;
630 [label=<gini = 0.0<br/>samples = 2<br/>value = [2, 0, 0, 0, 0, 0, 0, 0, 0, 0]<br/>class = CYT>, fillcolor="#e58139"] ;
629 -> 630 ;
631 [label=<gvh &le; 0.618<br/>gini = 0.413<br/>samples = 67<br/>value = [15, 0, 0, 0, 0, 3, 0, 49, 0, 0]<br/>class = NUC>, fillcolor="#c37eee"] ;
629 -> 631 ;
632 [label=<vac &le; 0.602<br/>gini = 0.376<br/>samples = 63<br/>value = [13, 0, 0, 0, 0, 2, 0, 48, 0, 0]<br/>class = NUC>, fillcolor="#bf74ed"] ;
631 -> 632 ;
633 [label=<alm &le; -0.454<br/>gini = 0.295<br/>samples = 41<br/>value = [5, 0, 0, 0, 0, 2, 0, 34, 0, 0]<br/>class = NUC>, fillcolor="#b560ea"] ;
632 -> 633 ;
634 [label=<mit &le; -0.846<br/>gini = 0.64<br/>samples = 5<br/>value = [1, 0, 0, 0, 0, 2, 0, 2, 0, 0]<br/>class = ME3>, fillcolor="#ffffff"] ;
633 -> 634 ;
635 [label=<gini = 0.0<br/>samples = 2<br/>value = [0, 0, 0, 0, 0, 2, 0, 0, 0, 0]<br/>class = ME3>, fillcolor="#399de5"] ;
634 -> 635 ;
636 [label=<mcg &le; -0.661<br/>gini = 0.444<br/>samples = 3<br/>value = [1, 0, 0, 0, 0, 0, 0, 2, 0, 0]<br/>class = NUC>, fillcolor="#d19cf2"] ;
634 -> 636 ;
637 [label=<gini = 0.0<br/>samples = 2<br/>value = [0, 0, 0, 0, 0, 0, 0, 2, 0, 0]<br/>class = NUC>, fillcolor="#a339e5"] ;
636 -> 637 ;
638 [label=<gini = 0.0<br/>samples = 1<br/>value = [1, 0, 0, 0, 0, 0, 0, 0, 0, 0]<br/>class = CYT>, fillcolor="#e58139"] ;
636 -> 638 ;
639 [label=<mit &le; -0.92<br/>gini = 0.198<br/>samples = 36<br/>value = [4, 0, 0, 0, 0, 0, 0, 32, 0, 0]<br/>class = NUC>, fillcolor="#ae52e8"] ;
633 -> 639 ;
640 [label=<nuc &le; 1.216<br/>gini = 0.469<br/>samples = 8<br/>value = [3, 0, 0, 0, 0, 0, 0, 5, 0, 0]<br/>class = NUC>, fillcolor="#dab0f5"] ;
639 -> 640 ;
641 [label=<alm &le; 0.651<br/>gini = 0.444<br/>samples = 3<br/>value = [2, 0, 0, 0, 0, 0, 0, 1, 0, 0]<br/>class = CYT>, fillcolor="#f2c09c"] ;
640 -> 641 ;
642 [label=<gini = 0.0<br/>samples = 2<br/>value = [2, 0, 0, 0, 0, 0, 0, 0, 0, 0]<br/>class = CYT>, fillcolor="#e58139"] ;
641 -> 642 ;
643 [label=<gini = 0.0<br/>samples = 1<br/>value = [0, 0, 0, 0, 0, 0, 0, 1, 0, 0]<br/>class = NUC>, fillcolor="#a339e5"] ;
641 -> 643 ;
644 [label=<vac &le; 0.258<br/>gini = 0.32<br/>samples = 5<br/>value = [1, 0, 0, 0, 0, 0, 0, 4, 0, 0]<br/>class = NUC>, fillcolor="#ba6aec"] ;
640 -> 644 ;
645 [label=<mcg &le; -1.1<br/>gini = 0.5<br/>samples = 2<br/>value = [1, 0, 0, 0, 0, 0, 0, 1, 0, 0]<br/>class = CYT>, fillcolor="#ffffff"] ;
644 -> 645 ;
646 [label=<gini = 0.0<br/>samples = 1<br/>value = [0, 0, 0, 0, 0, 0, 0, 1, 0, 0]<br/>class = NUC>, fillcolor="#a339e5"] ;
645 -> 646 ;
647 [label=<gini = 0.0<br/>samples = 1<br/>value = [1, 0, 0, 0, 0, 0, 0, 0, 0, 0]<br/>class = CYT>, fillcolor="#e58139"] ;
645 -> 647 ;
648 [label=<gini = 0.0<br/>samples = 3<br/>value = [0, 0, 0, 0, 0, 0, 0, 3, 0, 0]<br/>class = NUC>, fillcolor="#a339e5"] ;
644 -> 648 ;
649 [label=<gvh &le; -1.779<br/>gini = 0.069<br/>samples = 28<br/>value = [1, 0, 0, 0, 0, 0, 0, 27, 0, 0]<br/>class = NUC>, fillcolor="#a640e6"] ;
639 -> 649 ;
650 [label=<vac &le; 0.258<br/>gini = 0.444<br/>samples = 3<br/>value = [1, 0, 0, 0, 0, 0, 0, 2, 0, 0]<br/>class = NUC>, fillcolor="#d19cf2"] ;
649 -> 650 ;
651 [label=<gini = 0.0<br/>samples = 1<br/>value = [1, 0, 0, 0, 0, 0, 0, 0, 0, 0]<br/>class = CYT>, fillcolor="#e58139"] ;
650 -> 651 ;
652 [label=<gini = 0.0<br/>samples = 2<br/>value = [0, 0, 0, 0, 0, 0, 0, 2, 0, 0]<br/>class = NUC>, fillcolor="#a339e5"] ;
650 -> 652 ;
653 [label=<gini = 0.0<br/>samples = 25<br/>value = [0, 0, 0, 0, 0, 0, 0, 25, 0, 0]<br/>class = NUC>, fillcolor="#a339e5"] ;
649 -> 653 ;
654 [label=<alm &le; -0.222<br/>gini = 0.463<br/>samples = 22<br/>value = [8, 0, 0, 0, 0, 0, 0, 14, 0, 0]<br/>class = NUC>, fillcolor="#d8aaf4"] ;
632 -> 654 ;
655 [label=<gini = 0.0<br/>samples = 5<br/>value = [0, 0, 0, 0, 0, 0, 0, 5, 0, 0]<br/>class = NUC>, fillcolor="#a339e5"] ;
654 -> 655 ;
656 [label=<vac &le; 0.774<br/>gini = 0.498<br/>samples = 17<br/>value = [8, 0, 0, 0, 0, 0, 0, 9, 0, 0]<br/>class = NUC>, fillcolor="#f5e9fc"] ;
654 -> 656 ;
657 [label=<mcg &le; -0.954<br/>gini = 0.408<br/>samples = 7<br/>value = [5, 0, 0, 0, 0, 0, 0, 2, 0, 0]<br/>class = CYT>, fillcolor="#efb388"] ;
656 -> 657 ;
658 [label=<gini = 0.0<br/>samples = 1<br/>value = [0, 0, 0, 0, 0, 0, 0, 1, 0, 0]<br/>class = NUC>, fillcolor="#a339e5"] ;
657 -> 658 ;
659 [label=<gvh &le; 0.334<br/>gini = 0.278<br/>samples = 6<br/>value = [5, 0, 0, 0, 0, 0, 0, 1, 0, 0]<br/>class = CYT>, fillcolor="#ea9a61"] ;
657 -> 659 ;
660 [label=<gini = 0.0<br/>samples = 5<br/>value = [5, 0, 0, 0, 0, 0, 0, 0, 0, 0]<br/>class = CYT>, fillcolor="#e58139"] ;
659 -> 660 ;
661 [label=<gini = 0.0<br/>samples = 1<br/>value = [0, 0, 0, 0, 0, 0, 0, 1, 0, 0]<br/>class = NUC>, fillcolor="#a339e5"] ;
659 -> 661 ;
662 [label=<mcg &le; -0.588<br/>gini = 0.42<br/>samples = 10<br/>value = [3, 0, 0, 0, 0, 0, 0, 7, 0, 0]<br/>class = NUC>, fillcolor="#ca8ef0"] ;
656 -> 662 ;
663 [label=<gvh &le; -0.235<br/>gini = 0.48<br/>samples = 5<br/>value = [3, 0, 0, 0, 0, 0, 0, 2, 0, 0]<br/>class = CYT>, fillcolor="#f6d5bd"] ;
662 -> 663 ;
664 [label=<gini = 0.0<br/>samples = 3<br/>value = [3, 0, 0, 0, 0, 0, 0, 0, 0, 0]<br/>class = CYT>, fillcolor="#e58139"] ;
663 -> 664 ;
665 [label=<gini = 0.0<br/>samples = 2<br/>value = [0, 0, 0, 0, 0, 0, 0, 2, 0, 0]<br/>class = NUC>, fillcolor="#a339e5"] ;
663 -> 665 ;
666 [label=<gini = 0.0<br/>samples = 5<br/>value = [0, 0, 0, 0, 0, 0, 0, 5, 0, 0]<br/>class = NUC>, fillcolor="#a339e5"] ;
662 -> 666 ;
667 [label=<mit &le; -0.331<br/>gini = 0.625<br/>samples = 4<br/>value = [2, 0, 0, 0, 0, 1, 0, 1, 0, 0]<br/>class = CYT>, fillcolor="#f6d5bd"] ;
631 -> 667 ;
668 [label=<gini = 0.0<br/>samples = 2<br/>value = [2, 0, 0, 0, 0, 0, 0, 0, 0, 0]<br/>class = CYT>, fillcolor="#e58139"] ;
667 -> 668 ;
669 [label=<gvh &le; 0.74<br/>gini = 0.5<br/>samples = 2<br/>value = [0, 0, 0, 0, 0, 1, 0, 1, 0, 0]<br/>class = ME3>, fillcolor="#ffffff"] ;
667 -> 669 ;
670 [label=<gini = 0.0<br/>samples = 1<br/>value = [0, 0, 0, 0, 0, 1, 0, 0, 0, 0]<br/>class = ME3>, fillcolor="#399de5"] ;
669 -> 670 ;
671 [label=<gini = 0.0<br/>samples = 1<br/>value = [0, 0, 0, 0, 0, 0, 0, 1, 0, 0]<br/>class = NUC>, fillcolor="#a339e5"] ;
669 -> 671 ;
672 [label=<nuc &le; 0.552<br/>gini = 0.559<br/>samples = 32<br/>value = [15, 0, 0, 0, 0, 0, 1, 15, 1, 0]<br/>class = CYT>, fillcolor="#ffffff"] ;
628 -> 672 ;
673 [label=<gini = 0.0<br/>samples = 6<br/>value = [0, 0, 0, 0, 0, 0, 0, 6, 0, 0]<br/>class = NUC>, fillcolor="#a339e5"] ;
672 -> 673 ;
674 [label=<gvh &le; 0.131<br/>gini = 0.544<br/>samples = 26<br/>value = [15, 0, 0, 0, 0, 0, 1, 9, 1, 0]<br/>class = CYT>, fillcolor="#f6d3b9"] ;
672 -> 674 ;
675 [label=<alm &le; -0.512<br/>gini = 0.292<br/>samples = 12<br/>value = [10, 0, 0, 0, 0, 0, 1, 1, 0, 0]<br/>class = CYT>, fillcolor="#ea985d"] ;
674 -> 675 ;
676 [label=<gini = 0.0<br/>samples = 1<br/>value = [0, 0, 0, 0, 0, 0, 0, 1, 0, 0]<br/>class = NUC>, fillcolor="#a339e5"] ;
675 -> 676 ;
677 [label=<vac &le; 0.602<br/>gini = 0.165<br/>samples = 11<br/>value = [10, 0, 0, 0, 0, 0, 1, 0, 0, 0]<br/>class = CYT>, fillcolor="#e88e4d"] ;
675 -> 677 ;
678 [label=<gini = 0.0<br/>samples = 8<br/>value = [8, 0, 0, 0, 0, 0, 0, 0, 0, 0]<br/>class = CYT>, fillcolor="#e58139"] ;
677 -> 678 ;
